digraph Tree {
node [shape=box] ;
0 [label="X[4] <= 304.5\nentropy = 1.0\nsamples = 31887\nvalue = [15898, 15989]"] ;
1 [label="X[3] <= 10.5\nentropy = 0.971\nsamples = 12873\nvalue = [7732, 5141]"] ;
0 -> 1 [labeldistance=2.5, labelangle=45, headlabel="True"] ;
2 [label="X[0] <= 72.385\nentropy = 0.914\nsamples = 5493\nvalue = [3685, 1808]"] ;
1 -> 2 ;
3 [label="X[0] <= 28.645\nentropy = 0.885\nsamples = 4057\nvalue = [2826, 1231]"] ;
2 -> 3 ;
4 [label="X[6] <= 0.5\nentropy = 0.982\nsamples = 597\nvalue = [345, 252]"] ;
3 -> 4 ;
5 [label="X[5] <= 0.5\nentropy = 0.999\nsamples = 353\nvalue = [182, 171]"] ;
4 -> 5 ;
6 [label="X[1] <= 6.0\nentropy = 0.742\nsamples = 19\nvalue = [4, 15]"] ;
5 -> 6 ;
7 [label="X[4] <= 277.0\nentropy = 0.946\nsamples = 11\nvalue = [4, 7]"] ;
6 -> 7 ;
8 [label="X[4] <= 205.5\nentropy = 0.764\nsamples = 9\nvalue = [2, 7]"] ;
7 -> 8 ;
9 [label="X[3] <= 7.5\nentropy = 0.918\nsamples = 3\nvalue = [2, 1]"] ;
8 -> 9 ;
10 [label="entropy = 0.0\nsamples = 2\nvalue = [2, 0]"] ;
9 -> 10 ;
11 [label="entropy = 0.0\nsamples = 1\nvalue = [0, 1]"] ;
9 -> 11 ;
12 [label="entropy = 0.0\nsamples = 6\nvalue = [0, 6]"] ;
8 -> 12 ;
13 [label="entropy = 0.0\nsamples = 2\nvalue = [2, 0]"] ;
7 -> 13 ;
14 [label="entropy = 0.0\nsamples = 8\nvalue = [0, 8]"] ;
6 -> 14 ;
15 [label="X[0] <= 26.11\nentropy = 0.997\nsamples = 334\nvalue = [178, 156]"] ;
5 -> 15 ;
16 [label="X[3] <= 6.5\nentropy = 0.99\nsamples = 294\nvalue = [164, 130]"] ;
15 -> 16 ;
17 [label="X[0] <= 10.175\nentropy = 0.439\nsamples = 11\nvalue = [10, 1]"] ;
16 -> 17 ;
18 [label="X[2] <= 1.0\nentropy = 1.0\nsamples = 2\nvalue = [1, 1]"] ;
17 -> 18 ;
19 [label="entropy = 0.0\nsamples = 1\nvalue = [0, 1]"] ;
18 -> 19 ;
20 [label="entropy = 0.0\nsamples = 1\nvalue = [1, 0]"] ;
18 -> 20 ;
21 [label="entropy = 0.0\nsamples = 9\nvalue = [9, 0]"] ;
17 -> 21 ;
22 [label="X[1] <= 6.835\nentropy = 0.994\nsamples = 283\nvalue = [154, 129]"] ;
16 -> 22 ;
23 [label="X[7] <= 0.5\nentropy = 0.998\nsamples = 141\nvalue = [67, 74]"] ;
22 -> 23 ;
24 [label="X[0] <= 9.96\nentropy = 0.996\nsamples = 138\nvalue = [64, 74]"] ;
23 -> 24 ;
25 [label="X[0] <= 7.49\nentropy = 0.696\nsamples = 16\nvalue = [3, 13]"] ;
24 -> 25 ;
26 [label="X[0] <= 5.995\nentropy = 0.918\nsamples = 9\nvalue = [3, 6]"] ;
25 -> 26 ;
27 [label="X[3] <= 8.5\nentropy = 0.811\nsamples = 8\nvalue = [2, 6]"] ;
26 -> 27 ;
28 [label="entropy = 0.0\nsamples = 3\nvalue = [0, 3]"] ;
27 -> 28 ;
29 [label="X[4] <= 272.5\nentropy = 0.971\nsamples = 5\nvalue = [2, 3]"] ;
27 -> 29 ;
30 [label="X[4] <= 218.0\nentropy = 0.918\nsamples = 3\nvalue = [2, 1]"] ;
29 -> 30 ;
31 [label="entropy = 0.0\nsamples = 1\nvalue = [1, 0]"] ;
30 -> 31 ;
32 [label="X[4] <= 247.5\nentropy = 1.0\nsamples = 2\nvalue = [1, 1]"] ;
30 -> 32 ;
33 [label="entropy = 0.0\nsamples = 1\nvalue = [0, 1]"] ;
32 -> 33 ;
34 [label="entropy = 0.0\nsamples = 1\nvalue = [1, 0]"] ;
32 -> 34 ;
35 [label="entropy = 0.0\nsamples = 2\nvalue = [0, 2]"] ;
29 -> 35 ;
36 [label="entropy = 0.0\nsamples = 1\nvalue = [1, 0]"] ;
26 -> 36 ;
37 [label="entropy = 0.0\nsamples = 7\nvalue = [0, 7]"] ;
25 -> 37 ;
38 [label="X[4] <= 190.5\nentropy = 1.0\nsamples = 122\nvalue = [61, 61]"] ;
24 -> 38 ;
39 [label="X[0] <= 14.9\nentropy = 0.779\nsamples = 13\nvalue = [10, 3]"] ;
38 -> 39 ;
40 [label="X[1] <= 1.165\nentropy = 1.0\nsamples = 6\nvalue = [3, 3]"] ;
39 -> 40 ;
41 [label="entropy = 0.0\nsamples = 3\nvalue = [0, 3]"] ;
40 -> 41 ;
42 [label="entropy = 0.0\nsamples = 3\nvalue = [3, 0]"] ;
40 -> 42 ;
43 [label="entropy = 0.0\nsamples = 7\nvalue = [7, 0]"] ;
39 -> 43 ;
44 [label="X[9] <= 0.5\nentropy = 0.997\nsamples = 109\nvalue = [51, 58]"] ;
38 -> 44 ;
45 [label="X[4] <= 278.5\nentropy = 0.948\nsamples = 60\nvalue = [22, 38]"] ;
44 -> 45 ;
46 [label="X[2] <= 2.165\nentropy = 0.904\nsamples = 50\nvalue = [16, 34]"] ;
45 -> 46 ;
47 [label="X[4] <= 271.5\nentropy = 0.946\nsamples = 44\nvalue = [16, 28]"] ;
46 -> 47 ;
48 [label="X[4] <= 267.0\nentropy = 0.959\nsamples = 42\nvalue = [16, 26]"] ;
47 -> 48 ;
49 [label="X[4] <= 220.5\nentropy = 0.947\nsamples = 41\nvalue = [15, 26]"] ;
48 -> 49 ;
50 [label="X[2] <= 1.5\nentropy = 0.998\nsamples = 19\nvalue = [9, 10]"] ;
49 -> 50 ;
51 [label="X[3] <= 7.5\nentropy = 0.989\nsamples = 16\nvalue = [9, 7]"] ;
50 -> 51 ;
52 [label="X[2] <= 0.835\nentropy = 0.996\nsamples = 13\nvalue = [6, 7]"] ;
51 -> 52 ;
53 [label="X[0] <= 24.44\nentropy = 0.946\nsamples = 11\nvalue = [4, 7]"] ;
52 -> 53 ;
54 [label="X[4] <= 195.5\nentropy = 0.764\nsamples = 9\nvalue = [2, 7]"] ;
53 -> 54 ;
55 [label="entropy = 0.0\nsamples = 3\nvalue = [0, 3]"] ;
54 -> 55 ;
56 [label="X[4] <= 199.0\nentropy = 0.918\nsamples = 6\nvalue = [2, 4]"] ;
54 -> 56 ;
57 [label="entropy = 0.0\nsamples = 1\nvalue = [1, 0]"] ;
56 -> 57 ;
58 [label="X[2] <= 0.5\nentropy = 0.722\nsamples = 5\nvalue = [1, 4]"] ;
56 -> 58 ;
59 [label="entropy = 0.0\nsamples = 4\nvalue = [0, 4]"] ;
58 -> 59 ;
60 [label="entropy = 0.0\nsamples = 1\nvalue = [1, 0]"] ;
58 -> 60 ;
61 [label="entropy = 0.0\nsamples = 2\nvalue = [2, 0]"] ;
53 -> 61 ;
62 [label="entropy = 0.0\nsamples = 2\nvalue = [2, 0]"] ;
52 -> 62 ;
63 [label="entropy = 0.0\nsamples = 3\nvalue = [3, 0]"] ;
51 -> 63 ;
64 [label="entropy = 0.0\nsamples = 3\nvalue = [0, 3]"] ;
50 -> 64 ;
65 [label="X[0] <= 21.1\nentropy = 0.845\nsamples = 22\nvalue = [6, 16]"] ;
49 -> 65 ;
66 [label="X[4] <= 238.5\nentropy = 0.971\nsamples = 15\nvalue = [6, 9]"] ;
65 -> 66 ;
67 [label="entropy = 0.0\nsamples = 5\nvalue = [0, 5]"] ;
66 -> 67 ;
68 [label="X[4] <= 247.5\nentropy = 0.971\nsamples = 10\nvalue = [6, 4]"] ;
66 -> 68 ;
69 [label="entropy = 0.0\nsamples = 2\nvalue = [2, 0]"] ;
68 -> 69 ;
70 [label="X[0] <= 14.365\nentropy = 1.0\nsamples = 8\nvalue = [4, 4]"] ;
68 -> 70 ;
71 [label="X[4] <= 259.0\nentropy = 0.811\nsamples = 4\nvalue = [1, 3]"] ;
70 -> 71 ;
72 [label="entropy = 0.0\nsamples = 3\nvalue = [0, 3]"] ;
71 -> 72 ;
73 [label="entropy = 0.0\nsamples = 1\nvalue = [1, 0]"] ;
71 -> 73 ;
74 [label="X[4] <= 250.5\nentropy = 0.811\nsamples = 4\nvalue = [3, 1]"] ;
70 -> 74 ;
75 [label="entropy = 0.0\nsamples = 1\nvalue = [0, 1]"] ;
74 -> 75 ;
76 [label="entropy = 0.0\nsamples = 3\nvalue = [3, 0]"] ;
74 -> 76 ;
77 [label="entropy = 0.0\nsamples = 7\nvalue = [0, 7]"] ;
65 -> 77 ;
78 [label="entropy = 0.0\nsamples = 1\nvalue = [1, 0]"] ;
48 -> 78 ;
79 [label="entropy = 0.0\nsamples = 2\nvalue = [0, 2]"] ;
47 -> 79 ;
80 [label="entropy = 0.0\nsamples = 6\nvalue = [0, 6]"] ;
46 -> 80 ;
81 [label="X[4] <= 286.5\nentropy = 0.971\nsamples = 10\nvalue = [6, 4]"] ;
45 -> 81 ;
82 [label="entropy = 0.0\nsamples = 5\nvalue = [5, 0]"] ;
81 -> 82 ;
83 [label="X[4] <= 290.0\nentropy = 0.722\nsamples = 5\nvalue = [1, 4]"] ;
81 -> 83 ;
84 [label="entropy = 0.0\nsamples = 2\nvalue = [0, 2]"] ;
83 -> 84 ;
85 [label="X[4] <= 297.0\nentropy = 0.918\nsamples = 3\nvalue = [1, 2]"] ;
83 -> 85 ;
86 [label="entropy = 0.0\nsamples = 1\nvalue = [1, 0]"] ;
85 -> 86 ;
87 [label="entropy = 0.0\nsamples = 2\nvalue = [0, 2]"] ;
85 -> 87 ;
88 [label="X[4] <= 291.0\nentropy = 0.976\nsamples = 49\nvalue = [29, 20]"] ;
44 -> 88 ;
89 [label="X[4] <= 263.5\nentropy = 0.994\nsamples = 44\nvalue = [24, 20]"] ;
88 -> 89 ;
90 [label="X[1] <= 4.5\nentropy = 0.918\nsamples = 30\nvalue = [20, 10]"] ;
89 -> 90 ;
91 [label="X[8] <= 0.5\nentropy = 0.863\nsamples = 28\nvalue = [20, 8]"] ;
90 -> 91 ;
92 [label="X[0] <= 23.675\nentropy = 0.702\nsamples = 21\nvalue = [17, 4]"] ;
91 -> 92 ;
93 [label="X[1] <= 0.165\nentropy = 0.485\nsamples = 19\nvalue = [17, 2]"] ;
92 -> 93 ;
94 [label="X[4] <= 237.0\nentropy = 0.764\nsamples = 9\nvalue = [7, 2]"] ;
93 -> 94 ;
95 [label="X[0] <= 20.08\nentropy = 0.971\nsamples = 5\nvalue = [3, 2]"] ;
94 -> 95 ;
96 [label="X[4] <= 230.5\nentropy = 0.918\nsamples = 3\nvalue = [1, 2]"] ;
95 -> 96 ;
97 [label="entropy = 0.0\nsamples = 1\nvalue = [0, 1]"] ;
96 -> 97 ;
98 [label="X[4] <= 233.5\nentropy = 1.0\nsamples = 2\nvalue = [1, 1]"] ;
96 -> 98 ;
99 [label="entropy = 0.0\nsamples = 1\nvalue = [1, 0]"] ;
98 -> 99 ;
100 [label="entropy = 0.0\nsamples = 1\nvalue = [0, 1]"] ;
98 -> 100 ;
101 [label="entropy = 0.0\nsamples = 2\nvalue = [2, 0]"] ;
95 -> 101 ;
102 [label="entropy = 0.0\nsamples = 4\nvalue = [4, 0]"] ;
94 -> 102 ;
103 [label="entropy = 0.0\nsamples = 10\nvalue = [10, 0]"] ;
93 -> 103 ;
104 [label="entropy = 0.0\nsamples = 2\nvalue = [0, 2]"] ;
92 -> 104 ;
105 [label="X[0] <= 17.03\nentropy = 0.985\nsamples = 7\nvalue = [3, 4]"] ;
91 -> 105 ;
106 [label="entropy = 0.0\nsamples = 4\nvalue = [0, 4]"] ;
105 -> 106 ;
107 [label="entropy = 0.0\nsamples = 3\nvalue = [3, 0]"] ;
105 -> 107 ;
108 [label="entropy = 0.0\nsamples = 2\nvalue = [0, 2]"] ;
90 -> 108 ;
109 [label="X[2] <= 2.5\nentropy = 0.863\nsamples = 14\nvalue = [4, 10]"] ;
89 -> 109 ;
110 [label="X[0] <= 19.665\nentropy = 0.65\nsamples = 12\nvalue = [2, 10]"] ;
109 -> 110 ;
111 [label="entropy = 0.0\nsamples = 7\nvalue = [0, 7]"] ;
110 -> 111 ;
112 [label="X[0] <= 19.935\nentropy = 0.971\nsamples = 5\nvalue = [2, 3]"] ;
110 -> 112 ;
113 [label="entropy = 0.0\nsamples = 1\nvalue = [1, 0]"] ;
112 -> 113 ;
114 [label="X[4] <= 270.5\nentropy = 0.811\nsamples = 4\nvalue = [1, 3]"] ;
112 -> 114 ;
115 [label="entropy = 0.0\nsamples = 3\nvalue = [0, 3]"] ;
114 -> 115 ;
116 [label="entropy = 0.0\nsamples = 1\nvalue = [1, 0]"] ;
114 -> 116 ;
117 [label="entropy = 0.0\nsamples = 2\nvalue = [2, 0]"] ;
109 -> 117 ;
118 [label="entropy = 0.0\nsamples = 5\nvalue = [5, 0]"] ;
88 -> 118 ;
119 [label="entropy = 0.0\nsamples = 3\nvalue = [3, 0]"] ;
23 -> 119 ;
120 [label="X[1] <= 9.835\nentropy = 0.963\nsamples = 142\nvalue = [87, 55]"] ;
22 -> 120 ;
121 [label="X[2] <= 0.5\nentropy = 0.229\nsamples = 27\nvalue = [26, 1]"] ;
120 -> 121 ;
122 [label="X[2] <= 0.165\nentropy = 0.65\nsamples = 6\nvalue = [5, 1]"] ;
121 -> 122 ;
123 [label="entropy = 0.0\nsamples = 4\nvalue = [4, 0]"] ;
122 -> 123 ;
124 [label="X[3] <= 8.5\nentropy = 1.0\nsamples = 2\nvalue = [1, 1]"] ;
122 -> 124 ;
125 [label="entropy = 0.0\nsamples = 1\nvalue = [0, 1]"] ;
124 -> 125 ;
126 [label="entropy = 0.0\nsamples = 1\nvalue = [1, 0]"] ;
124 -> 126 ;
127 [label="entropy = 0.0\nsamples = 21\nvalue = [21, 0]"] ;
121 -> 127 ;
128 [label="X[0] <= 25.18\nentropy = 0.997\nsamples = 115\nvalue = [61, 54]"] ;
120 -> 128 ;
129 [label="X[4] <= 291.5\nentropy = 0.999\nsamples = 111\nvalue = [57, 54]"] ;
128 -> 129 ;
130 [label="X[4] <= 272.5\nentropy = 0.992\nsamples = 96\nvalue = [53, 43]"] ;
129 -> 130 ;
131 [label="X[2] <= 35.835\nentropy = 0.999\nsamples = 90\nvalue = [47, 43]"] ;
130 -> 131 ;
132 [label="X[0] <= 8.35\nentropy = 0.995\nsamples = 87\nvalue = [47, 40]"] ;
131 -> 132 ;
133 [label="entropy = 0.0\nsamples = 3\nvalue = [3, 0]"] ;
132 -> 133 ;
134 [label="X[2] <= 10.165\nentropy = 0.998\nsamples = 84\nvalue = [44, 40]"] ;
132 -> 134 ;
135 [label="X[0] <= 21.84\nentropy = 0.99\nsamples = 50\nvalue = [22, 28]"] ;
134 -> 135 ;
136 [label="X[0] <= 18.615\nentropy = 0.999\nsamples = 46\nvalue = [22, 24]"] ;
135 -> 136 ;
137 [label="X[2] <= 8.5\nentropy = 0.979\nsamples = 41\nvalue = [17, 24]"] ;
136 -> 137 ;
138 [label="X[2] <= 7.5\nentropy = 0.995\nsamples = 37\nvalue = [17, 20]"] ;
137 -> 138 ;
139 [label="X[2] <= 5.835\nentropy = 0.967\nsamples = 33\nvalue = [13, 20]"] ;
138 -> 139 ;
140 [label="X[1] <= 11.5\nentropy = 1.0\nsamples = 26\nvalue = [13, 13]"] ;
139 -> 140 ;
141 [label="X[4] <= 216.0\nentropy = 0.65\nsamples = 6\nvalue = [1, 5]"] ;
140 -> 141 ;
142 [label="X[2] <= 3.17\nentropy = 1.0\nsamples = 2\nvalue = [1, 1]"] ;
141 -> 142 ;
143 [label="entropy = 0.0\nsamples = 1\nvalue = [1, 0]"] ;
142 -> 143 ;
144 [label="entropy = 0.0\nsamples = 1\nvalue = [0, 1]"] ;
142 -> 144 ;
145 [label="entropy = 0.0\nsamples = 4\nvalue = [0, 4]"] ;
141 -> 145 ;
146 [label="X[1] <= 27.835\nentropy = 0.971\nsamples = 20\nvalue = [12, 8]"] ;
140 -> 146 ;
147 [label="X[3] <= 8.5\nentropy = 0.918\nsamples = 18\nvalue = [12, 6]"] ;
146 -> 147 ;
148 [label="X[4] <= 201.5\nentropy = 0.996\nsamples = 13\nvalue = [7, 6]"] ;
147 -> 148 ;
149 [label="entropy = 0.0\nsamples = 2\nvalue = [0, 2]"] ;
148 -> 149 ;
150 [label="X[4] <= 233.0\nentropy = 0.946\nsamples = 11\nvalue = [7, 4]"] ;
148 -> 150 ;
151 [label="X[0] <= 11.02\nentropy = 0.764\nsamples = 9\nvalue = [7, 2]"] ;
150 -> 151 ;
152 [label="X[3] <= 7.5\nentropy = 1.0\nsamples = 4\nvalue = [2, 2]"] ;
151 -> 152 ;
153 [label="entropy = 0.0\nsamples = 2\nvalue = [2, 0]"] ;
152 -> 153 ;
154 [label="entropy = 0.0\nsamples = 2\nvalue = [0, 2]"] ;
152 -> 154 ;
155 [label="entropy = 0.0\nsamples = 5\nvalue = [5, 0]"] ;
151 -> 155 ;
156 [label="entropy = 0.0\nsamples = 2\nvalue = [0, 2]"] ;
150 -> 156 ;
157 [label="entropy = 0.0\nsamples = 5\nvalue = [5, 0]"] ;
147 -> 157 ;
158 [label="entropy = 0.0\nsamples = 2\nvalue = [0, 2]"] ;
146 -> 158 ;
159 [label="entropy = 0.0\nsamples = 7\nvalue = [0, 7]"] ;
139 -> 159 ;
160 [label="entropy = 0.0\nsamples = 4\nvalue = [4, 0]"] ;
138 -> 160 ;
161 [label="entropy = 0.0\nsamples = 4\nvalue = [0, 4]"] ;
137 -> 161 ;
162 [label="entropy = 0.0\nsamples = 5\nvalue = [5, 0]"] ;
136 -> 162 ;
163 [label="entropy = 0.0\nsamples = 4\nvalue = [0, 4]"] ;
135 -> 163 ;
164 [label="X[0] <= 11.62\nentropy = 0.937\nsamples = 34\nvalue = [22, 12]"] ;
134 -> 164 ;
165 [label="X[0] <= 9.84\nentropy = 0.439\nsamples = 11\nvalue = [10, 1]"] ;
164 -> 165 ;
166 [label="entropy = 0.0\nsamples = 1\nvalue = [0, 1]"] ;
165 -> 166 ;
167 [label="entropy = 0.0\nsamples = 10\nvalue = [10, 0]"] ;
165 -> 167 ;
168 [label="X[0] <= 12.405\nentropy = 0.999\nsamples = 23\nvalue = [12, 11]"] ;
164 -> 168 ;
169 [label="entropy = 0.0\nsamples = 3\nvalue = [0, 3]"] ;
168 -> 169 ;
170 [label="X[2] <= 16.5\nentropy = 0.971\nsamples = 20\nvalue = [12, 8]"] ;
168 -> 170 ;
171 [label="X[4] <= 27.5\nentropy = 0.722\nsamples = 10\nvalue = [8, 2]"] ;
170 -> 171 ;
172 [label="entropy = 0.0\nsamples = 1\nvalue = [0, 1]"] ;
171 -> 172 ;
173 [label="X[0] <= 24.37\nentropy = 0.503\nsamples = 9\nvalue = [8, 1]"] ;
171 -> 173 ;
174 [label="entropy = 0.0\nsamples = 8\nvalue = [8, 0]"] ;
173 -> 174 ;
175 [label="entropy = 0.0\nsamples = 1\nvalue = [0, 1]"] ;
173 -> 175 ;
176 [label="X[0] <= 20.235\nentropy = 0.971\nsamples = 10\nvalue = [4, 6]"] ;
170 -> 176 ;
177 [label="X[0] <= 16.16\nentropy = 1.0\nsamples = 8\nvalue = [4, 4]"] ;
176 -> 177 ;
178 [label="X[1] <= 13.665\nentropy = 0.811\nsamples = 4\nvalue = [1, 3]"] ;
177 -> 178 ;
179 [label="entropy = 0.0\nsamples = 1\nvalue = [1, 0]"] ;
178 -> 179 ;
180 [label="entropy = 0.0\nsamples = 3\nvalue = [0, 3]"] ;
178 -> 180 ;
181 [label="X[8] <= 0.5\nentropy = 0.811\nsamples = 4\nvalue = [3, 1]"] ;
177 -> 181 ;
182 [label="entropy = 0.0\nsamples = 3\nvalue = [3, 0]"] ;
181 -> 182 ;
183 [label="entropy = 0.0\nsamples = 1\nvalue = [0, 1]"] ;
181 -> 183 ;
184 [label="entropy = 0.0\nsamples = 2\nvalue = [0, 2]"] ;
176 -> 184 ;
185 [label="entropy = 0.0\nsamples = 3\nvalue = [0, 3]"] ;
131 -> 185 ;
186 [label="entropy = 0.0\nsamples = 6\nvalue = [6, 0]"] ;
130 -> 186 ;
187 [label="X[0] <= 12.995\nentropy = 0.837\nsamples = 15\nvalue = [4, 11]"] ;
129 -> 187 ;
188 [label="X[0] <= 11.11\nentropy = 0.985\nsamples = 7\nvalue = [4, 3]"] ;
187 -> 188 ;
189 [label="X[2] <= 0.5\nentropy = 0.811\nsamples = 4\nvalue = [1, 3]"] ;
188 -> 189 ;
190 [label="entropy = 0.0\nsamples = 1\nvalue = [1, 0]"] ;
189 -> 190 ;
191 [label="entropy = 0.0\nsamples = 3\nvalue = [0, 3]"] ;
189 -> 191 ;
192 [label="entropy = 0.0\nsamples = 3\nvalue = [3, 0]"] ;
188 -> 192 ;
193 [label="entropy = 0.0\nsamples = 8\nvalue = [0, 8]"] ;
187 -> 193 ;
194 [label="entropy = 0.0\nsamples = 4\nvalue = [4, 0]"] ;
128 -> 194 ;
195 [label="X[0] <= 26.445\nentropy = 0.934\nsamples = 40\nvalue = [14, 26]"] ;
15 -> 195 ;
196 [label="entropy = 0.0\nsamples = 7\nvalue = [0, 7]"] ;
195 -> 196 ;
197 [label="X[0] <= 28.515\nentropy = 0.983\nsamples = 33\nvalue = [14, 19]"] ;
195 -> 197 ;
198 [label="X[4] <= 247.0\nentropy = 0.999\nsamples = 29\nvalue = [14, 15]"] ;
197 -> 198 ;
199 [label="X[1] <= 0.165\nentropy = 0.949\nsamples = 19\nvalue = [7, 12]"] ;
198 -> 199 ;
200 [label="entropy = 0.0\nsamples = 3\nvalue = [3, 0]"] ;
199 -> 200 ;
201 [label="X[4] <= 204.0\nentropy = 0.811\nsamples = 16\nvalue = [4, 12]"] ;
199 -> 201 ;
202 [label="X[3] <= 8.0\nentropy = 0.971\nsamples = 10\nvalue = [4, 6]"] ;
201 -> 202 ;
203 [label="X[1] <= 6.835\nentropy = 0.985\nsamples = 7\nvalue = [4, 3]"] ;
202 -> 203 ;
204 [label="entropy = 0.0\nsamples = 2\nvalue = [2, 0]"] ;
203 -> 204 ;
205 [label="X[4] <= 171.0\nentropy = 0.971\nsamples = 5\nvalue = [2, 3]"] ;
203 -> 205 ;
206 [label="entropy = 0.0\nsamples = 2\nvalue = [2, 0]"] ;
205 -> 206 ;
207 [label="entropy = 0.0\nsamples = 3\nvalue = [0, 3]"] ;
205 -> 207 ;
208 [label="entropy = 0.0\nsamples = 3\nvalue = [0, 3]"] ;
202 -> 208 ;
209 [label="entropy = 0.0\nsamples = 6\nvalue = [0, 6]"] ;
201 -> 209 ;
210 [label="X[1] <= 1.165\nentropy = 0.881\nsamples = 10\nvalue = [7, 3]"] ;
198 -> 210 ;
211 [label="entropy = 0.0\nsamples = 2\nvalue = [0, 2]"] ;
210 -> 211 ;
212 [label="X[0] <= 28.39\nentropy = 0.544\nsamples = 8\nvalue = [7, 1]"] ;
210 -> 212 ;
213 [label="entropy = 0.0\nsamples = 7\nvalue = [7, 0]"] ;
212 -> 213 ;
214 [label="entropy = 0.0\nsamples = 1\nvalue = [0, 1]"] ;
212 -> 214 ;
215 [label="entropy = 0.0\nsamples = 4\nvalue = [0, 4]"] ;
197 -> 215 ;
216 [label="X[0] <= 11.655\nentropy = 0.917\nsamples = 244\nvalue = [163, 81]"] ;
4 -> 216 ;
217 [label="X[1] <= 3.5\nentropy = 0.783\nsamples = 116\nvalue = [89, 27]"] ;
216 -> 217 ;
218 [label="X[1] <= 1.835\nentropy = 0.899\nsamples = 54\nvalue = [37, 17]"] ;
217 -> 218 ;
219 [label="X[0] <= 5.945\nentropy = 0.79\nsamples = 38\nvalue = [29, 9]"] ;
218 -> 219 ;
220 [label="entropy = 0.0\nsamples = 1\nvalue = [0, 1]"] ;
219 -> 220 ;
221 [label="X[2] <= 0.5\nentropy = 0.753\nsamples = 37\nvalue = [29, 8]"] ;
219 -> 221 ;
222 [label="X[1] <= 0.5\nentropy = 0.811\nsamples = 32\nvalue = [24, 8]"] ;
221 -> 222 ;
223 [label="X[4] <= 268.5\nentropy = 0.722\nsamples = 30\nvalue = [24, 6]"] ;
222 -> 223 ;
224 [label="X[3] <= 8.5\nentropy = 0.828\nsamples = 23\nvalue = [17, 6]"] ;
223 -> 224 ;
225 [label="X[7] <= 0.5\nentropy = 0.523\nsamples = 17\nvalue = [15, 2]"] ;
224 -> 225 ;
226 [label="entropy = 0.0\nsamples = 13\nvalue = [13, 0]"] ;
225 -> 226 ;
227 [label="X[0] <= 10.17\nentropy = 1.0\nsamples = 4\nvalue = [2, 2]"] ;
225 -> 227 ;
228 [label="entropy = 0.0\nsamples = 2\nvalue = [0, 2]"] ;
227 -> 228 ;
229 [label="entropy = 0.0\nsamples = 2\nvalue = [2, 0]"] ;
227 -> 229 ;
230 [label="X[0] <= 10.045\nentropy = 0.918\nsamples = 6\nvalue = [2, 4]"] ;
224 -> 230 ;
231 [label="X[4] <= 265.5\nentropy = 0.918\nsamples = 3\nvalue = [2, 1]"] ;
230 -> 231 ;
232 [label="entropy = 0.0\nsamples = 2\nvalue = [2, 0]"] ;
231 -> 232 ;
233 [label="entropy = 0.0\nsamples = 1\nvalue = [0, 1]"] ;
231 -> 233 ;
234 [label="entropy = 0.0\nsamples = 3\nvalue = [0, 3]"] ;
230 -> 234 ;
235 [label="entropy = 0.0\nsamples = 7\nvalue = [7, 0]"] ;
223 -> 235 ;
236 [label="entropy = 0.0\nsamples = 2\nvalue = [0, 2]"] ;
222 -> 236 ;
237 [label="entropy = 0.0\nsamples = 5\nvalue = [5, 0]"] ;
221 -> 237 ;
238 [label="X[0] <= 10.14\nentropy = 1.0\nsamples = 16\nvalue = [8, 8]"] ;
218 -> 238 ;
239 [label="X[2] <= 4.0\nentropy = 0.918\nsamples = 12\nvalue = [8, 4]"] ;
238 -> 239 ;
240 [label="X[5] <= 0.5\nentropy = 0.845\nsamples = 11\nvalue = [8, 3]"] ;
239 -> 240 ;
241 [label="entropy = 0.0\nsamples = 1\nvalue = [0, 1]"] ;
240 -> 241 ;
242 [label="X[4] <= 222.5\nentropy = 0.722\nsamples = 10\nvalue = [8, 2]"] ;
240 -> 242 ;
243 [label="X[2] <= 0.835\nentropy = 0.918\nsamples = 6\nvalue = [4, 2]"] ;
242 -> 243 ;
244 [label="X[3] <= 8.0\nentropy = 0.722\nsamples = 5\nvalue = [4, 1]"] ;
243 -> 244 ;
245 [label="entropy = 0.0\nsamples = 4\nvalue = [4, 0]"] ;
244 -> 245 ;
246 [label="entropy = 0.0\nsamples = 1\nvalue = [0, 1]"] ;
244 -> 246 ;
247 [label="entropy = 0.0\nsamples = 1\nvalue = [0, 1]"] ;
243 -> 247 ;
248 [label="entropy = 0.0\nsamples = 4\nvalue = [4, 0]"] ;
242 -> 248 ;
249 [label="entropy = 0.0\nsamples = 1\nvalue = [0, 1]"] ;
239 -> 249 ;
250 [label="entropy = 0.0\nsamples = 4\nvalue = [0, 4]"] ;
238 -> 250 ;
251 [label="X[1] <= 49.335\nentropy = 0.637\nsamples = 62\nvalue = [52, 10]"] ;
217 -> 251 ;
252 [label="X[2] <= 9.83\nentropy = 0.604\nsamples = 61\nvalue = [52, 9]"] ;
251 -> 252 ;
253 [label="X[4] <= 68.0\nentropy = 0.672\nsamples = 51\nvalue = [42, 9]"] ;
252 -> 253 ;
254 [label="entropy = 0.0\nsamples = 2\nvalue = [0, 2]"] ;
253 -> 254 ;
255 [label="X[1] <= 11.17\nentropy = 0.592\nsamples = 49\nvalue = [42, 7]"] ;
253 -> 255 ;
256 [label="X[0] <= 10.005\nentropy = 0.33\nsamples = 33\nvalue = [31, 2]"] ;
255 -> 256 ;
257 [label="X[2] <= 3.17\nentropy = 0.863\nsamples = 7\nvalue = [5, 2]"] ;
256 -> 257 ;
258 [label="entropy = 0.0\nsamples = 2\nvalue = [0, 2]"] ;
257 -> 258 ;
259 [label="entropy = 0.0\nsamples = 5\nvalue = [5, 0]"] ;
257 -> 259 ;
260 [label="entropy = 0.0\nsamples = 26\nvalue = [26, 0]"] ;
256 -> 260 ;
261 [label="X[2] <= 2.165\nentropy = 0.896\nsamples = 16\nvalue = [11, 5]"] ;
255 -> 261 ;
262 [label="X[0] <= 11.57\nentropy = 0.811\nsamples = 4\nvalue = [1, 3]"] ;
261 -> 262 ;
263 [label="entropy = 0.0\nsamples = 3\nvalue = [0, 3]"] ;
262 -> 263 ;
264 [label="entropy = 0.0\nsamples = 1\nvalue = [1, 0]"] ;
262 -> 264 ;
265 [label="X[2] <= 7.5\nentropy = 0.65\nsamples = 12\nvalue = [10, 2]"] ;
261 -> 265 ;
266 [label="entropy = 0.0\nsamples = 9\nvalue = [9, 0]"] ;
265 -> 266 ;
267 [label="X[0] <= 10.295\nentropy = 0.918\nsamples = 3\nvalue = [1, 2]"] ;
265 -> 267 ;
268 [label="entropy = 0.0\nsamples = 1\nvalue = [1, 0]"] ;
267 -> 268 ;
269 [label="entropy = 0.0\nsamples = 2\nvalue = [0, 2]"] ;
267 -> 269 ;
270 [label="entropy = 0.0\nsamples = 10\nvalue = [10, 0]"] ;
252 -> 270 ;
271 [label="entropy = 0.0\nsamples = 1\nvalue = [0, 1]"] ;
251 -> 271 ;
272 [label="X[2] <= 2.165\nentropy = 0.982\nsamples = 128\nvalue = [74, 54]"] ;
216 -> 272 ;
273 [label="X[0] <= 14.045\nentropy = 1.0\nsamples = 77\nvalue = [39, 38]"] ;
272 -> 273 ;
274 [label="X[0] <= 12.17\nentropy = 0.503\nsamples = 9\nvalue = [1, 8]"] ;
273 -> 274 ;
275 [label="X[1] <= 5.5\nentropy = 0.918\nsamples = 3\nvalue = [1, 2]"] ;
274 -> 275 ;
276 [label="entropy = 0.0\nsamples = 1\nvalue = [1, 0]"] ;
275 -> 276 ;
277 [label="entropy = 0.0\nsamples = 2\nvalue = [0, 2]"] ;
275 -> 277 ;
278 [label="entropy = 0.0\nsamples = 6\nvalue = [0, 6]"] ;
274 -> 278 ;
279 [label="X[0] <= 15.11\nentropy = 0.99\nsamples = 68\nvalue = [38, 30]"] ;
273 -> 279 ;
280 [label="entropy = 0.0\nsamples = 5\nvalue = [5, 0]"] ;
279 -> 280 ;
281 [label="X[4] <= 284.0\nentropy = 0.998\nsamples = 63\nvalue = [33, 30]"] ;
279 -> 281 ;
282 [label="X[2] <= 1.165\nentropy = 0.985\nsamples = 56\nvalue = [32, 24]"] ;
281 -> 282 ;
283 [label="X[0] <= 28.48\nentropy = 0.958\nsamples = 50\nvalue = [31, 19]"] ;
282 -> 283 ;
284 [label="X[0] <= 27.7\nentropy = 0.938\nsamples = 48\nvalue = [31, 17]"] ;
283 -> 284 ;
285 [label="X[4] <= 233.0\nentropy = 0.968\nsamples = 43\nvalue = [26, 17]"] ;
284 -> 285 ;
286 [label="X[1] <= 2.165\nentropy = 0.998\nsamples = 19\nvalue = [9, 10]"] ;
285 -> 286 ;
287 [label="X[1] <= 0.165\nentropy = 0.918\nsamples = 12\nvalue = [8, 4]"] ;
286 -> 287 ;
288 [label="X[0] <= 16.675\nentropy = 0.722\nsamples = 5\nvalue = [1, 4]"] ;
287 -> 288 ;
289 [label="entropy = 0.0\nsamples = 1\nvalue = [1, 0]"] ;
288 -> 289 ;
290 [label="entropy = 0.0\nsamples = 4\nvalue = [0, 4]"] ;
288 -> 290 ;
291 [label="entropy = 0.0\nsamples = 7\nvalue = [7, 0]"] ;
287 -> 291 ;
292 [label="X[1] <= 7.835\nentropy = 0.592\nsamples = 7\nvalue = [1, 6]"] ;
286 -> 292 ;
293 [label="entropy = 0.0\nsamples = 6\nvalue = [0, 6]"] ;
292 -> 293 ;
294 [label="entropy = 0.0\nsamples = 1\nvalue = [1, 0]"] ;
292 -> 294 ;
295 [label="X[0] <= 17.165\nentropy = 0.871\nsamples = 24\nvalue = [17, 7]"] ;
285 -> 295 ;
296 [label="entropy = 0.0\nsamples = 4\nvalue = [4, 0]"] ;
295 -> 296 ;
297 [label="X[7] <= 0.5\nentropy = 0.934\nsamples = 20\nvalue = [13, 7]"] ;
295 -> 297 ;
298 [label="X[1] <= 14.665\nentropy = 0.989\nsamples = 16\nvalue = [9, 7]"] ;
297 -> 298 ;
299 [label="X[0] <= 18.36\nentropy = 1.0\nsamples = 14\nvalue = [7, 7]"] ;
298 -> 299 ;
300 [label="entropy = 0.0\nsamples = 2\nvalue = [0, 2]"] ;
299 -> 300 ;
301 [label="X[2] <= 0.5\nentropy = 0.98\nsamples = 12\nvalue = [7, 5]"] ;
299 -> 301 ;
302 [label="X[4] <= 265.5\nentropy = 0.881\nsamples = 10\nvalue = [7, 3]"] ;
301 -> 302 ;
303 [label="X[3] <= 8.5\nentropy = 0.985\nsamples = 7\nvalue = [4, 3]"] ;
302 -> 303 ;
304 [label="entropy = 0.0\nsamples = 3\nvalue = [3, 0]"] ;
303 -> 304 ;
305 [label="X[8] <= 0.5\nentropy = 0.811\nsamples = 4\nvalue = [1, 3]"] ;
303 -> 305 ;
306 [label="entropy = 0.0\nsamples = 2\nvalue = [0, 2]"] ;
305 -> 306 ;
307 [label="X[4] <= 252.5\nentropy = 1.0\nsamples = 2\nvalue = [1, 1]"] ;
305 -> 307 ;
308 [label="entropy = 0.0\nsamples = 1\nvalue = [0, 1]"] ;
307 -> 308 ;
309 [label="entropy = 0.0\nsamples = 1\nvalue = [1, 0]"] ;
307 -> 309 ;
310 [label="entropy = 0.0\nsamples = 3\nvalue = [3, 0]"] ;
302 -> 310 ;
311 [label="entropy = 0.0\nsamples = 2\nvalue = [0, 2]"] ;
301 -> 311 ;
312 [label="entropy = 0.0\nsamples = 2\nvalue = [2, 0]"] ;
298 -> 312 ;
313 [label="entropy = 0.0\nsamples = 4\nvalue = [4, 0]"] ;
297 -> 313 ;
314 [label="entropy = 0.0\nsamples = 5\nvalue = [5, 0]"] ;
284 -> 314 ;
315 [label="entropy = 0.0\nsamples = 2\nvalue = [0, 2]"] ;
283 -> 315 ;
316 [label="X[9] <= 0.5\nentropy = 0.65\nsamples = 6\nvalue = [1, 5]"] ;
282 -> 316 ;
317 [label="entropy = 0.0\nsamples = 1\nvalue = [1, 0]"] ;
316 -> 317 ;
318 [label="entropy = 0.0\nsamples = 5\nvalue = [0, 5]"] ;
316 -> 318 ;
319 [label="X[4] <= 295.5\nentropy = 0.592\nsamples = 7\nvalue = [1, 6]"] ;
281 -> 319 ;
320 [label="entropy = 0.0\nsamples = 6\nvalue = [0, 6]"] ;
319 -> 320 ;
321 [label="entropy = 0.0\nsamples = 1\nvalue = [1, 0]"] ;
319 -> 321 ;
322 [label="X[2] <= 3.165\nentropy = 0.897\nsamples = 51\nvalue = [35, 16]"] ;
272 -> 322 ;
323 [label="entropy = 0.0\nsamples = 7\nvalue = [7, 0]"] ;
322 -> 323 ;
324 [label="X[0] <= 15.87\nentropy = 0.946\nsamples = 44\nvalue = [28, 16]"] ;
322 -> 324 ;
325 [label="X[5] <= 0.5\nentropy = 0.592\nsamples = 14\nvalue = [12, 2]"] ;
324 -> 325 ;
326 [label="X[0] <= 13.9\nentropy = 0.918\nsamples = 3\nvalue = [1, 2]"] ;
325 -> 326 ;
327 [label="entropy = 0.0\nsamples = 2\nvalue = [0, 2]"] ;
326 -> 327 ;
328 [label="entropy = 0.0\nsamples = 1\nvalue = [1, 0]"] ;
326 -> 328 ;
329 [label="entropy = 0.0\nsamples = 11\nvalue = [11, 0]"] ;
325 -> 329 ;
330 [label="X[4] <= 122.0\nentropy = 0.997\nsamples = 30\nvalue = [16, 14]"] ;
324 -> 330 ;
331 [label="entropy = 0.0\nsamples = 3\nvalue = [0, 3]"] ;
330 -> 331 ;
332 [label="X[0] <= 16.115\nentropy = 0.975\nsamples = 27\nvalue = [16, 11]"] ;
330 -> 332 ;
333 [label="entropy = 0.0\nsamples = 2\nvalue = [0, 2]"] ;
332 -> 333 ;
334 [label="X[2] <= 6.665\nentropy = 0.943\nsamples = 25\nvalue = [16, 9]"] ;
332 -> 334 ;
335 [label="X[1] <= 11.5\nentropy = 0.863\nsamples = 7\nvalue = [2, 5]"] ;
334 -> 335 ;
336 [label="X[1] <= 9.335\nentropy = 0.918\nsamples = 3\nvalue = [2, 1]"] ;
335 -> 336 ;
337 [label="entropy = 0.0\nsamples = 1\nvalue = [0, 1]"] ;
336 -> 337 ;
338 [label="entropy = 0.0\nsamples = 2\nvalue = [2, 0]"] ;
336 -> 338 ;
339 [label="entropy = 0.0\nsamples = 4\nvalue = [0, 4]"] ;
335 -> 339 ;
340 [label="X[2] <= 11.0\nentropy = 0.764\nsamples = 18\nvalue = [14, 4]"] ;
334 -> 340 ;
341 [label="entropy = 0.0\nsamples = 11\nvalue = [11, 0]"] ;
340 -> 341 ;
342 [label="X[0] <= 20.96\nentropy = 0.985\nsamples = 7\nvalue = [3, 4]"] ;
340 -> 342 ;
343 [label="X[3] <= 8.5\nentropy = 0.811\nsamples = 4\nvalue = [3, 1]"] ;
342 -> 343 ;
344 [label="entropy = 0.0\nsamples = 1\nvalue = [0, 1]"] ;
343 -> 344 ;
345 [label="entropy = 0.0\nsamples = 3\nvalue = [3, 0]"] ;
343 -> 345 ;
346 [label="entropy = 0.0\nsamples = 3\nvalue = [0, 3]"] ;
342 -> 346 ;
347 [label="X[9] <= 0.5\nentropy = 0.859\nsamples = 3460\nvalue = [2481, 979]"] ;
3 -> 347 ;
348 [label="X[1] <= 67.5\nentropy = 0.917\nsamples = 1456\nvalue = [973, 483]"] ;
347 -> 348 ;
349 [label="X[1] <= 0.5\nentropy = 0.905\nsamples = 1362\nvalue = [926, 436]"] ;
348 -> 349 ;
350 [label="X[4] <= 287.5\nentropy = 0.983\nsamples = 177\nvalue = [102, 75]"] ;
349 -> 350 ;
351 [label="X[2] <= 0.5\nentropy = 0.994\nsamples = 147\nvalue = [80, 67]"] ;
350 -> 351 ;
352 [label="X[4] <= 265.5\nentropy = 0.997\nsamples = 144\nvalue = [77, 67]"] ;
351 -> 352 ;
353 [label="X[0] <= 69.82\nentropy = 0.982\nsamples = 107\nvalue = [62, 45]"] ;
352 -> 353 ;
354 [label="X[3] <= 9.5\nentropy = 0.973\nsamples = 104\nvalue = [62, 42]"] ;
353 -> 354 ;
355 [label="X[5] <= 0.5\nentropy = 0.966\nsamples = 102\nvalue = [62, 40]"] ;
354 -> 355 ;
356 [label="X[0] <= 32.395\nentropy = 0.722\nsamples = 5\nvalue = [1, 4]"] ;
355 -> 356 ;
357 [label="X[0] <= 30.435\nentropy = 1.0\nsamples = 2\nvalue = [1, 1]"] ;
356 -> 357 ;
358 [label="entropy = 0.0\nsamples = 1\nvalue = [0, 1]"] ;
357 -> 358 ;
359 [label="entropy = 0.0\nsamples = 1\nvalue = [1, 0]"] ;
357 -> 359 ;
360 [label="entropy = 0.0\nsamples = 3\nvalue = [0, 3]"] ;
356 -> 360 ;
361 [label="X[0] <= 67.77\nentropy = 0.952\nsamples = 97\nvalue = [61, 36]"] ;
355 -> 361 ;
362 [label="X[0] <= 64.465\nentropy = 0.96\nsamples = 94\nvalue = [58, 36]"] ;
361 -> 362 ;
363 [label="X[4] <= 261.5\nentropy = 0.95\nsamples = 92\nvalue = [58, 34]"] ;
362 -> 363 ;
364 [label="X[3] <= 6.5\nentropy = 0.959\nsamples = 89\nvalue = [55, 34]"] ;
363 -> 364 ;
365 [label="X[1] <= 0.165\nentropy = 0.811\nsamples = 4\nvalue = [1, 3]"] ;
364 -> 365 ;
366 [label="entropy = 0.0\nsamples = 2\nvalue = [0, 2]"] ;
365 -> 366 ;
367 [label="X[10] <= 1.0\nentropy = 1.0\nsamples = 2\nvalue = [1, 1]"] ;
365 -> 367 ;
368 [label="entropy = 0.0\nsamples = 1\nvalue = [1, 0]"] ;
367 -> 368 ;
369 [label="entropy = 0.0\nsamples = 1\nvalue = [0, 1]"] ;
367 -> 369 ;
370 [label="X[0] <= 44.3\nentropy = 0.947\nsamples = 85\nvalue = [54, 31]"] ;
364 -> 370 ;
371 [label="X[4] <= 54.5\nentropy = 0.867\nsamples = 52\nvalue = [37, 15]"] ;
370 -> 371 ;
372 [label="entropy = 0.0\nsamples = 2\nvalue = [0, 2]"] ;
371 -> 372 ;
373 [label="X[1] <= 0.165\nentropy = 0.827\nsamples = 50\nvalue = [37, 13]"] ;
371 -> 373 ;
374 [label="X[4] <= 202.5\nentropy = 0.764\nsamples = 45\nvalue = [35, 10]"] ;
373 -> 374 ;
375 [label="entropy = 0.0\nsamples = 9\nvalue = [9, 0]"] ;
374 -> 375 ;
376 [label="X[4] <= 209.0\nentropy = 0.852\nsamples = 36\nvalue = [26, 10]"] ;
374 -> 376 ;
377 [label="entropy = 0.0\nsamples = 2\nvalue = [0, 2]"] ;
376 -> 377 ;
378 [label="X[0] <= 30.455\nentropy = 0.787\nsamples = 34\nvalue = [26, 8]"] ;
376 -> 378 ;
379 [label="entropy = 0.0\nsamples = 4\nvalue = [4, 0]"] ;
378 -> 379 ;
380 [label="X[0] <= 31.77\nentropy = 0.837\nsamples = 30\nvalue = [22, 8]"] ;
378 -> 380 ;
381 [label="entropy = 0.0\nsamples = 2\nvalue = [0, 2]"] ;
380 -> 381 ;
382 [label="X[0] <= 40.485\nentropy = 0.75\nsamples = 28\nvalue = [22, 6]"] ;
380 -> 382 ;
383 [label="X[0] <= 40.12\nentropy = 0.811\nsamples = 24\nvalue = [18, 6]"] ;
382 -> 383 ;
384 [label="X[0] <= 37.75\nentropy = 0.755\nsamples = 23\nvalue = [18, 5]"] ;
383 -> 384 ;
385 [label="X[0] <= 37.6\nentropy = 0.874\nsamples = 17\nvalue = [12, 5]"] ;
384 -> 385 ;
386 [label="X[4] <= 257.0\nentropy = 0.811\nsamples = 16\nvalue = [12, 4]"] ;
385 -> 386 ;
387 [label="X[4] <= 237.0\nentropy = 0.65\nsamples = 12\nvalue = [10, 2]"] ;
386 -> 387 ;
388 [label="X[4] <= 233.5\nentropy = 0.863\nsamples = 7\nvalue = [5, 2]"] ;
387 -> 388 ;
389 [label="X[0] <= 35.15\nentropy = 0.65\nsamples = 6\nvalue = [5, 1]"] ;
388 -> 389 ;
390 [label="X[4] <= 214.5\nentropy = 1.0\nsamples = 2\nvalue = [1, 1]"] ;
389 -> 390 ;
391 [label="entropy = 0.0\nsamples = 1\nvalue = [1, 0]"] ;
390 -> 391 ;
392 [label="entropy = 0.0\nsamples = 1\nvalue = [0, 1]"] ;
390 -> 392 ;
393 [label="entropy = 0.0\nsamples = 4\nvalue = [4, 0]"] ;
389 -> 393 ;
394 [label="entropy = 0.0\nsamples = 1\nvalue = [0, 1]"] ;
388 -> 394 ;
395 [label="entropy = 0.0\nsamples = 5\nvalue = [5, 0]"] ;
387 -> 395 ;
396 [label="X[4] <= 258.5\nentropy = 1.0\nsamples = 4\nvalue = [2, 2]"] ;
386 -> 396 ;
397 [label="entropy = 0.0\nsamples = 1\nvalue = [0, 1]"] ;
396 -> 397 ;
398 [label="X[0] <= 37.41\nentropy = 0.918\nsamples = 3\nvalue = [2, 1]"] ;
396 -> 398 ;
399 [label="entropy = 0.0\nsamples = 2\nvalue = [2, 0]"] ;
398 -> 399 ;
400 [label="entropy = 0.0\nsamples = 1\nvalue = [0, 1]"] ;
398 -> 400 ;
401 [label="entropy = 0.0\nsamples = 1\nvalue = [0, 1]"] ;
385 -> 401 ;
402 [label="entropy = 0.0\nsamples = 6\nvalue = [6, 0]"] ;
384 -> 402 ;
403 [label="entropy = 0.0\nsamples = 1\nvalue = [0, 1]"] ;
383 -> 403 ;
404 [label="entropy = 0.0\nsamples = 4\nvalue = [4, 0]"] ;
382 -> 404 ;
405 [label="X[4] <= 186.5\nentropy = 0.971\nsamples = 5\nvalue = [2, 3]"] ;
373 -> 405 ;
406 [label="entropy = 0.0\nsamples = 2\nvalue = [0, 2]"] ;
405 -> 406 ;
407 [label="X[0] <= 29.995\nentropy = 0.918\nsamples = 3\nvalue = [2, 1]"] ;
405 -> 407 ;
408 [label="entropy = 0.0\nsamples = 1\nvalue = [1, 0]"] ;
407 -> 408 ;
409 [label="X[3] <= 7.5\nentropy = 1.0\nsamples = 2\nvalue = [1, 1]"] ;
407 -> 409 ;
410 [label="entropy = 0.0\nsamples = 1\nvalue = [0, 1]"] ;
409 -> 410 ;
411 [label="entropy = 0.0\nsamples = 1\nvalue = [1, 0]"] ;
409 -> 411 ;
412 [label="X[0] <= 49.065\nentropy = 0.999\nsamples = 33\nvalue = [17, 16]"] ;
370 -> 412 ;
413 [label="X[4] <= 202.5\nentropy = 0.503\nsamples = 9\nvalue = [1, 8]"] ;
412 -> 413 ;
414 [label="X[4] <= 194.0\nentropy = 0.918\nsamples = 3\nvalue = [1, 2]"] ;
413 -> 414 ;
415 [label="entropy = 0.0\nsamples = 2\nvalue = [0, 2]"] ;
414 -> 415 ;
416 [label="entropy = 0.0\nsamples = 1\nvalue = [1, 0]"] ;
414 -> 416 ;
417 [label="entropy = 0.0\nsamples = 6\nvalue = [0, 6]"] ;
413 -> 417 ;
418 [label="X[4] <= 225.5\nentropy = 0.918\nsamples = 24\nvalue = [16, 8]"] ;
412 -> 418 ;
419 [label="entropy = 0.0\nsamples = 6\nvalue = [6, 0]"] ;
418 -> 419 ;
420 [label="X[4] <= 234.0\nentropy = 0.991\nsamples = 18\nvalue = [10, 8]"] ;
418 -> 420 ;
421 [label="entropy = 0.0\nsamples = 2\nvalue = [0, 2]"] ;
420 -> 421 ;
422 [label="X[4] <= 252.5\nentropy = 0.954\nsamples = 16\nvalue = [10, 6]"] ;
420 -> 422 ;
423 [label="X[0] <= 57.195\nentropy = 0.722\nsamples = 10\nvalue = [8, 2]"] ;
422 -> 423 ;
424 [label="entropy = 0.0\nsamples = 6\nvalue = [6, 0]"] ;
423 -> 424 ;
425 [label="X[4] <= 244.5\nentropy = 1.0\nsamples = 4\nvalue = [2, 2]"] ;
423 -> 425 ;
426 [label="entropy = 0.0\nsamples = 1\nvalue = [0, 1]"] ;
425 -> 426 ;
427 [label="X[0] <= 61.21\nentropy = 0.918\nsamples = 3\nvalue = [2, 1]"] ;
425 -> 427 ;
428 [label="entropy = 0.0\nsamples = 2\nvalue = [2, 0]"] ;
427 -> 428 ;
429 [label="entropy = 0.0\nsamples = 1\nvalue = [0, 1]"] ;
427 -> 429 ;
430 [label="X[0] <= 50.17\nentropy = 0.918\nsamples = 6\nvalue = [2, 4]"] ;
422 -> 430 ;
431 [label="entropy = 0.0\nsamples = 1\nvalue = [1, 0]"] ;
430 -> 431 ;
432 [label="X[0] <= 62.025\nentropy = 0.722\nsamples = 5\nvalue = [1, 4]"] ;
430 -> 432 ;
433 [label="entropy = 0.0\nsamples = 4\nvalue = [0, 4]"] ;
432 -> 433 ;
434 [label="entropy = 0.0\nsamples = 1\nvalue = [1, 0]"] ;
432 -> 434 ;
435 [label="entropy = 0.0\nsamples = 3\nvalue = [3, 0]"] ;
363 -> 435 ;
436 [label="entropy = 0.0\nsamples = 2\nvalue = [0, 2]"] ;
362 -> 436 ;
437 [label="entropy = 0.0\nsamples = 3\nvalue = [3, 0]"] ;
361 -> 437 ;
438 [label="entropy = 0.0\nsamples = 2\nvalue = [0, 2]"] ;
354 -> 438 ;
439 [label="entropy = 0.0\nsamples = 3\nvalue = [0, 3]"] ;
353 -> 439 ;
440 [label="X[3] <= 9.5\nentropy = 0.974\nsamples = 37\nvalue = [15, 22]"] ;
352 -> 440 ;
441 [label="X[0] <= 50.565\nentropy = 0.952\nsamples = 35\nvalue = [13, 22]"] ;
440 -> 441 ;
442 [label="X[0] <= 47.115\nentropy = 0.991\nsamples = 27\nvalue = [12, 15]"] ;
441 -> 442 ;
443 [label="X[0] <= 40.305\nentropy = 0.954\nsamples = 24\nvalue = [9, 15]"] ;
442 -> 443 ;
444 [label="X[4] <= 284.5\nentropy = 0.985\nsamples = 21\nvalue = [9, 12]"] ;
443 -> 444 ;
445 [label="X[0] <= 38.61\nentropy = 0.998\nsamples = 19\nvalue = [9, 10]"] ;
444 -> 445 ;
446 [label="X[0] <= 36.94\nentropy = 0.977\nsamples = 17\nvalue = [7, 10]"] ;
445 -> 446 ;
447 [label="X[0] <= 36.755\nentropy = 0.996\nsamples = 13\nvalue = [7, 6]"] ;
446 -> 447 ;
448 [label="X[4] <= 280.5\nentropy = 1.0\nsamples = 12\nvalue = [6, 6]"] ;
447 -> 448 ;
449 [label="X[4] <= 275.0\nentropy = 0.954\nsamples = 8\nvalue = [3, 5]"] ;
448 -> 449 ;
450 [label="X[0] <= 35.095\nentropy = 0.971\nsamples = 5\nvalue = [3, 2]"] ;
449 -> 450 ;
451 [label="entropy = 0.0\nsamples = 2\nvalue = [2, 0]"] ;
450 -> 451 ;
452 [label="X[6] <= 0.5\nentropy = 0.918\nsamples = 3\nvalue = [1, 2]"] ;
450 -> 452 ;
453 [label="entropy = 0.0\nsamples = 2\nvalue = [0, 2]"] ;
452 -> 453 ;
454 [label="entropy = 0.0\nsamples = 1\nvalue = [1, 0]"] ;
452 -> 454 ;
455 [label="entropy = 0.0\nsamples = 3\nvalue = [0, 3]"] ;
449 -> 455 ;
456 [label="X[0] <= 32.55\nentropy = 0.811\nsamples = 4\nvalue = [3, 1]"] ;
448 -> 456 ;
457 [label="entropy = 0.0\nsamples = 2\nvalue = [2, 0]"] ;
456 -> 457 ;
458 [label="X[0] <= 34.43\nentropy = 1.0\nsamples = 2\nvalue = [1, 1]"] ;
456 -> 458 ;
459 [label="entropy = 0.0\nsamples = 1\nvalue = [0, 1]"] ;
458 -> 459 ;
460 [label="entropy = 0.0\nsamples = 1\nvalue = [1, 0]"] ;
458 -> 460 ;
461 [label="entropy = 0.0\nsamples = 1\nvalue = [1, 0]"] ;
447 -> 461 ;
462 [label="entropy = 0.0\nsamples = 4\nvalue = [0, 4]"] ;
446 -> 462 ;
463 [label="entropy = 0.0\nsamples = 2\nvalue = [2, 0]"] ;
445 -> 463 ;
464 [label="entropy = 0.0\nsamples = 2\nvalue = [0, 2]"] ;
444 -> 464 ;
465 [label="entropy = 0.0\nsamples = 3\nvalue = [0, 3]"] ;
443 -> 465 ;
466 [label="entropy = 0.0\nsamples = 3\nvalue = [3, 0]"] ;
442 -> 466 ;
467 [label="X[0] <= 70.825\nentropy = 0.544\nsamples = 8\nvalue = [1, 7]"] ;
441 -> 467 ;
468 [label="entropy = 0.0\nsamples = 7\nvalue = [0, 7]"] ;
467 -> 468 ;
469 [label="entropy = 0.0\nsamples = 1\nvalue = [1, 0]"] ;
467 -> 469 ;
470 [label="entropy = 0.0\nsamples = 2\nvalue = [2, 0]"] ;
440 -> 470 ;
471 [label="entropy = 0.0\nsamples = 3\nvalue = [3, 0]"] ;
351 -> 471 ;
472 [label="X[0] <= 31.655\nentropy = 0.837\nsamples = 30\nvalue = [22, 8]"] ;
350 -> 472 ;
473 [label="entropy = 0.0\nsamples = 5\nvalue = [5, 0]"] ;
472 -> 473 ;
474 [label="X[4] <= 289.5\nentropy = 0.904\nsamples = 25\nvalue = [17, 8]"] ;
472 -> 474 ;
475 [label="entropy = 0.0\nsamples = 1\nvalue = [0, 1]"] ;
474 -> 475 ;
476 [label="X[4] <= 293.5\nentropy = 0.871\nsamples = 24\nvalue = [17, 7]"] ;
474 -> 476 ;
477 [label="entropy = 0.0\nsamples = 4\nvalue = [4, 0]"] ;
476 -> 477 ;
478 [label="X[4] <= 294.5\nentropy = 0.934\nsamples = 20\nvalue = [13, 7]"] ;
476 -> 478 ;
479 [label="entropy = 0.0\nsamples = 1\nvalue = [0, 1]"] ;
478 -> 479 ;
480 [label="X[1] <= 0.165\nentropy = 0.9\nsamples = 19\nvalue = [13, 6]"] ;
478 -> 480 ;
481 [label="X[4] <= 303.5\nentropy = 0.852\nsamples = 18\nvalue = [13, 5]"] ;
480 -> 481 ;
482 [label="X[4] <= 300.0\nentropy = 0.722\nsamples = 15\nvalue = [12, 3]"] ;
481 -> 482 ;
483 [label="X[0] <= 61.975\nentropy = 0.845\nsamples = 11\nvalue = [8, 3]"] ;
482 -> 483 ;
484 [label="X[0] <= 49.475\nentropy = 0.722\nsamples = 10\nvalue = [8, 2]"] ;
483 -> 484 ;
485 [label="X[0] <= 45.68\nentropy = 0.918\nsamples = 6\nvalue = [4, 2]"] ;
484 -> 485 ;
486 [label="X[0] <= 37.49\nentropy = 0.722\nsamples = 5\nvalue = [4, 1]"] ;
485 -> 486 ;
487 [label="X[0] <= 35.61\nentropy = 1.0\nsamples = 2\nvalue = [1, 1]"] ;
486 -> 487 ;
488 [label="entropy = 0.0\nsamples = 1\nvalue = [1, 0]"] ;
487 -> 488 ;
489 [label="entropy = 0.0\nsamples = 1\nvalue = [0, 1]"] ;
487 -> 489 ;
490 [label="entropy = 0.0\nsamples = 3\nvalue = [3, 0]"] ;
486 -> 490 ;
491 [label="entropy = 0.0\nsamples = 1\nvalue = [0, 1]"] ;
485 -> 491 ;
492 [label="entropy = 0.0\nsamples = 4\nvalue = [4, 0]"] ;
484 -> 492 ;
493 [label="entropy = 0.0\nsamples = 1\nvalue = [0, 1]"] ;
483 -> 493 ;
494 [label="entropy = 0.0\nsamples = 4\nvalue = [4, 0]"] ;
482 -> 494 ;
495 [label="X[0] <= 44.41\nentropy = 0.918\nsamples = 3\nvalue = [1, 2]"] ;
481 -> 495 ;
496 [label="entropy = 0.0\nsamples = 1\nvalue = [1, 0]"] ;
495 -> 496 ;
497 [label="entropy = 0.0\nsamples = 2\nvalue = [0, 2]"] ;
495 -> 497 ;
498 [label="entropy = 0.0\nsamples = 1\nvalue = [0, 1]"] ;
480 -> 498 ;
499 [label="X[4] <= 302.5\nentropy = 0.887\nsamples = 1185\nvalue = [824, 361]"] ;
349 -> 499 ;
500 [label="X[2] <= 35.165\nentropy = 0.883\nsamples = 1178\nvalue = [823, 355]"] ;
499 -> 500 ;
501 [label="X[8] <= 0.5\nentropy = 0.888\nsamples = 1159\nvalue = [805, 354]"] ;
500 -> 501 ;
502 [label="X[4] <= 232.5\nentropy = 0.895\nsamples = 1124\nvalue = [774, 350]"] ;
501 -> 502 ;
503 [label="X[0] <= 44.62\nentropy = 0.923\nsamples = 730\nvalue = [483, 247]"] ;
502 -> 503 ;
504 [label="X[2] <= 2.5\nentropy = 0.85\nsamples = 315\nvalue = [228, 87]"] ;
503 -> 504 ;
505 [label="X[2] <= 0.5\nentropy = 0.92\nsamples = 191\nvalue = [127, 64]"] ;
504 -> 505 ;
506 [label="X[4] <= 88.0\nentropy = 0.838\nsamples = 112\nvalue = [82, 30]"] ;
505 -> 506 ;
507 [label="X[1] <= 4.17\nentropy = 0.811\nsamples = 8\nvalue = [2, 6]"] ;
506 -> 507 ;
508 [label="entropy = 0.0\nsamples = 2\nvalue = [2, 0]"] ;
507 -> 508 ;
509 [label="entropy = 0.0\nsamples = 6\nvalue = [0, 6]"] ;
507 -> 509 ;
510 [label="X[6] <= 0.5\nentropy = 0.779\nsamples = 104\nvalue = [80, 24]"] ;
506 -> 510 ;
511 [label="X[0] <= 41.85\nentropy = 0.722\nsamples = 95\nvalue = [76, 19]"] ;
510 -> 511 ;
512 [label="X[1] <= 2.165\nentropy = 0.663\nsamples = 87\nvalue = [72, 15]"] ;
511 -> 512 ;
513 [label="X[3] <= 6.5\nentropy = 0.971\nsamples = 15\nvalue = [9, 6]"] ;
512 -> 513 ;
514 [label="entropy = 0.0\nsamples = 4\nvalue = [4, 0]"] ;
513 -> 514 ;
515 [label="X[0] <= 37.64\nentropy = 0.994\nsamples = 11\nvalue = [5, 6]"] ;
513 -> 515 ;
516 [label="X[3] <= 7.5\nentropy = 0.863\nsamples = 7\nvalue = [2, 5]"] ;
515 -> 516 ;
517 [label="entropy = 0.0\nsamples = 5\nvalue = [0, 5]"] ;
516 -> 517 ;
518 [label="entropy = 0.0\nsamples = 2\nvalue = [2, 0]"] ;
516 -> 518 ;
519 [label="X[4] <= 156.0\nentropy = 0.811\nsamples = 4\nvalue = [3, 1]"] ;
515 -> 519 ;
520 [label="entropy = 0.0\nsamples = 1\nvalue = [0, 1]"] ;
519 -> 520 ;
521 [label="entropy = 0.0\nsamples = 3\nvalue = [3, 0]"] ;
519 -> 521 ;
522 [label="X[4] <= 201.5\nentropy = 0.544\nsamples = 72\nvalue = [63, 9]"] ;
512 -> 522 ;
523 [label="X[4] <= 190.5\nentropy = 0.734\nsamples = 34\nvalue = [27, 7]"] ;
522 -> 523 ;
524 [label="X[0] <= 36.185\nentropy = 0.414\nsamples = 24\nvalue = [22, 2]"] ;
523 -> 524 ;
525 [label="entropy = 0.0\nsamples = 13\nvalue = [13, 0]"] ;
524 -> 525 ;
526 [label="X[0] <= 36.96\nentropy = 0.684\nsamples = 11\nvalue = [9, 2]"] ;
524 -> 526 ;
527 [label="entropy = 0.0\nsamples = 1\nvalue = [0, 1]"] ;
526 -> 527 ;
528 [label="X[1] <= 13.665\nentropy = 0.469\nsamples = 10\nvalue = [9, 1]"] ;
526 -> 528 ;
529 [label="entropy = 0.0\nsamples = 7\nvalue = [7, 0]"] ;
528 -> 529 ;
530 [label="X[4] <= 186.5\nentropy = 0.918\nsamples = 3\nvalue = [2, 1]"] ;
528 -> 530 ;
531 [label="entropy = 0.0\nsamples = 1\nvalue = [0, 1]"] ;
530 -> 531 ;
532 [label="entropy = 0.0\nsamples = 2\nvalue = [2, 0]"] ;
530 -> 532 ;
533 [label="X[4] <= 198.5\nentropy = 1.0\nsamples = 10\nvalue = [5, 5]"] ;
523 -> 533 ;
534 [label="X[0] <= 32.515\nentropy = 0.954\nsamples = 8\nvalue = [5, 3]"] ;
533 -> 534 ;
535 [label="entropy = 0.0\nsamples = 2\nvalue = [2, 0]"] ;
534 -> 535 ;
536 [label="X[4] <= 191.5\nentropy = 1.0\nsamples = 6\nvalue = [3, 3]"] ;
534 -> 536 ;
537 [label="entropy = 0.0\nsamples = 2\nvalue = [0, 2]"] ;
536 -> 537 ;
538 [label="X[1] <= 2.835\nentropy = 0.811\nsamples = 4\nvalue = [3, 1]"] ;
536 -> 538 ;
539 [label="entropy = 0.0\nsamples = 1\nvalue = [0, 1]"] ;
538 -> 539 ;
540 [label="entropy = 0.0\nsamples = 3\nvalue = [3, 0]"] ;
538 -> 540 ;
541 [label="entropy = 0.0\nsamples = 2\nvalue = [0, 2]"] ;
533 -> 541 ;
542 [label="X[4] <= 221.0\nentropy = 0.297\nsamples = 38\nvalue = [36, 2]"] ;
522 -> 542 ;
543 [label="entropy = 0.0\nsamples = 27\nvalue = [27, 0]"] ;
542 -> 543 ;
544 [label="X[4] <= 224.5\nentropy = 0.684\nsamples = 11\nvalue = [9, 2]"] ;
542 -> 544 ;
545 [label="X[0] <= 36.765\nentropy = 1.0\nsamples = 4\nvalue = [2, 2]"] ;
544 -> 545 ;
546 [label="entropy = 0.0\nsamples = 2\nvalue = [0, 2]"] ;
545 -> 546 ;
547 [label="entropy = 0.0\nsamples = 2\nvalue = [2, 0]"] ;
545 -> 547 ;
548 [label="entropy = 0.0\nsamples = 7\nvalue = [7, 0]"] ;
544 -> 548 ;
549 [label="X[1] <= 9.665\nentropy = 1.0\nsamples = 8\nvalue = [4, 4]"] ;
511 -> 549 ;
550 [label="X[1] <= 3.83\nentropy = 0.722\nsamples = 5\nvalue = [1, 4]"] ;
549 -> 550 ;
551 [label="entropy = 0.0\nsamples = 1\nvalue = [1, 0]"] ;
550 -> 551 ;
552 [label="entropy = 0.0\nsamples = 4\nvalue = [0, 4]"] ;
550 -> 552 ;
553 [label="entropy = 0.0\nsamples = 3\nvalue = [3, 0]"] ;
549 -> 553 ;
554 [label="X[0] <= 39.26\nentropy = 0.991\nsamples = 9\nvalue = [4, 5]"] ;
510 -> 554 ;
555 [label="X[1] <= 2.165\nentropy = 0.863\nsamples = 7\nvalue = [2, 5]"] ;
554 -> 555 ;
556 [label="X[0] <= 34.61\nentropy = 1.0\nsamples = 4\nvalue = [2, 2]"] ;
555 -> 556 ;
557 [label="entropy = 0.0\nsamples = 1\nvalue = [1, 0]"] ;
556 -> 557 ;
558 [label="X[4] <= 201.0\nentropy = 0.918\nsamples = 3\nvalue = [1, 2]"] ;
556 -> 558 ;
559 [label="entropy = 0.0\nsamples = 1\nvalue = [1, 0]"] ;
558 -> 559 ;
560 [label="entropy = 0.0\nsamples = 2\nvalue = [0, 2]"] ;
558 -> 560 ;
561 [label="entropy = 0.0\nsamples = 3\nvalue = [0, 3]"] ;
555 -> 561 ;
562 [label="entropy = 0.0\nsamples = 2\nvalue = [2, 0]"] ;
554 -> 562 ;
563 [label="X[0] <= 42.56\nentropy = 0.986\nsamples = 79\nvalue = [45, 34]"] ;
505 -> 563 ;
564 [label="X[4] <= 190.0\nentropy = 0.995\nsamples = 74\nvalue = [40, 34]"] ;
563 -> 564 ;
565 [label="X[1] <= 24.67\nentropy = 0.863\nsamples = 28\nvalue = [20, 8]"] ;
564 -> 565 ;
566 [label="X[1] <= 3.165\nentropy = 0.684\nsamples = 22\nvalue = [18, 4]"] ;
565 -> 566 ;
567 [label="X[2] <= 1.335\nentropy = 0.811\nsamples = 4\nvalue = [1, 3]"] ;
566 -> 567 ;
568 [label="entropy = 0.0\nsamples = 3\nvalue = [0, 3]"] ;
567 -> 568 ;
569 [label="entropy = 0.0\nsamples = 1\nvalue = [1, 0]"] ;
567 -> 569 ;
570 [label="X[0] <= 40.97\nentropy = 0.31\nsamples = 18\nvalue = [17, 1]"] ;
566 -> 570 ;
571 [label="entropy = 0.0\nsamples = 15\nvalue = [15, 0]"] ;
570 -> 571 ;
572 [label="X[2] <= 1.665\nentropy = 0.918\nsamples = 3\nvalue = [2, 1]"] ;
570 -> 572 ;
573 [label="entropy = 0.0\nsamples = 2\nvalue = [2, 0]"] ;
572 -> 573 ;
574 [label="entropy = 0.0\nsamples = 1\nvalue = [0, 1]"] ;
572 -> 574 ;
575 [label="X[2] <= 0.835\nentropy = 0.918\nsamples = 6\nvalue = [2, 4]"] ;
565 -> 575 ;
576 [label="entropy = 0.0\nsamples = 2\nvalue = [2, 0]"] ;
575 -> 576 ;
577 [label="entropy = 0.0\nsamples = 4\nvalue = [0, 4]"] ;
575 -> 577 ;
578 [label="X[0] <= 40.835\nentropy = 0.988\nsamples = 46\nvalue = [20, 26]"] ;
564 -> 578 ;
579 [label="X[0] <= 39.39\nentropy = 0.998\nsamples = 42\nvalue = [20, 22]"] ;
578 -> 579 ;
580 [label="X[0] <= 35.665\nentropy = 0.964\nsamples = 36\nvalue = [14, 22]"] ;
579 -> 580 ;
581 [label="X[6] <= 0.5\nentropy = 1.0\nsamples = 26\nvalue = [13, 13]"] ;
580 -> 581 ;
582 [label="X[4] <= 207.0\nentropy = 0.988\nsamples = 23\nvalue = [10, 13]"] ;
581 -> 582 ;
583 [label="X[0] <= 35.505\nentropy = 0.592\nsamples = 7\nvalue = [1, 6]"] ;
582 -> 583 ;
584 [label="entropy = 0.0\nsamples = 6\nvalue = [0, 6]"] ;
583 -> 584 ;
585 [label="entropy = 0.0\nsamples = 1\nvalue = [1, 0]"] ;
583 -> 585 ;
586 [label="X[0] <= 34.16\nentropy = 0.989\nsamples = 16\nvalue = [9, 7]"] ;
582 -> 586 ;
587 [label="X[4] <= 222.0\nentropy = 0.863\nsamples = 7\nvalue = [2, 5]"] ;
586 -> 587 ;
588 [label="X[2] <= 0.835\nentropy = 0.918\nsamples = 3\nvalue = [2, 1]"] ;
587 -> 588 ;
589 [label="entropy = 0.0\nsamples = 1\nvalue = [0, 1]"] ;
588 -> 589 ;
590 [label="entropy = 0.0\nsamples = 2\nvalue = [2, 0]"] ;
588 -> 590 ;
591 [label="entropy = 0.0\nsamples = 4\nvalue = [0, 4]"] ;
587 -> 591 ;
592 [label="X[1] <= 6.17\nentropy = 0.764\nsamples = 9\nvalue = [7, 2]"] ;
586 -> 592 ;
593 [label="X[1] <= 4.5\nentropy = 0.918\nsamples = 3\nvalue = [1, 2]"] ;
592 -> 593 ;
594 [label="entropy = 0.0\nsamples = 1\nvalue = [1, 0]"] ;
593 -> 594 ;
595 [label="entropy = 0.0\nsamples = 2\nvalue = [0, 2]"] ;
593 -> 595 ;
596 [label="entropy = 0.0\nsamples = 6\nvalue = [6, 0]"] ;
592 -> 596 ;
597 [label="entropy = 0.0\nsamples = 3\nvalue = [3, 0]"] ;
581 -> 597 ;
598 [label="X[4] <= 230.5\nentropy = 0.469\nsamples = 10\nvalue = [1, 9]"] ;
580 -> 598 ;
599 [label="entropy = 0.0\nsamples = 9\nvalue = [0, 9]"] ;
598 -> 599 ;
600 [label="entropy = 0.0\nsamples = 1\nvalue = [1, 0]"] ;
598 -> 600 ;
601 [label="entropy = 0.0\nsamples = 6\nvalue = [6, 0]"] ;
579 -> 601 ;
602 [label="entropy = 0.0\nsamples = 4\nvalue = [0, 4]"] ;
578 -> 602 ;
603 [label="entropy = 0.0\nsamples = 5\nvalue = [5, 0]"] ;
563 -> 603 ;
604 [label="X[0] <= 36.515\nentropy = 0.692\nsamples = 124\nvalue = [101, 23]"] ;
504 -> 604 ;
605 [label="X[4] <= 196.0\nentropy = 0.867\nsamples = 52\nvalue = [37, 15]"] ;
604 -> 605 ;
606 [label="X[1] <= 44.67\nentropy = 0.983\nsamples = 26\nvalue = [15, 11]"] ;
605 -> 606 ;
607 [label="X[4] <= 82.0\nentropy = 0.932\nsamples = 23\nvalue = [15, 8]"] ;
606 -> 607 ;
608 [label="entropy = 0.0\nsamples = 7\nvalue = [7, 0]"] ;
607 -> 608 ;
609 [label="X[2] <= 12.665\nentropy = 1.0\nsamples = 16\nvalue = [8, 8]"] ;
607 -> 609 ;
610 [label="X[2] <= 5.835\nentropy = 0.918\nsamples = 12\nvalue = [4, 8]"] ;
609 -> 610 ;
611 [label="X[1] <= 20.0\nentropy = 1.0\nsamples = 8\nvalue = [4, 4]"] ;
610 -> 611 ;
612 [label="X[2] <= 5.5\nentropy = 0.722\nsamples = 5\nvalue = [1, 4]"] ;
611 -> 612 ;
613 [label="entropy = 0.0\nsamples = 4\nvalue = [0, 4]"] ;
612 -> 613 ;
614 [label="entropy = 0.0\nsamples = 1\nvalue = [1, 0]"] ;
612 -> 614 ;
615 [label="entropy = 0.0\nsamples = 3\nvalue = [3, 0]"] ;
611 -> 615 ;
616 [label="entropy = 0.0\nsamples = 4\nvalue = [0, 4]"] ;
610 -> 616 ;
617 [label="entropy = 0.0\nsamples = 4\nvalue = [4, 0]"] ;
609 -> 617 ;
618 [label="entropy = 0.0\nsamples = 3\nvalue = [0, 3]"] ;
606 -> 618 ;
619 [label="X[2] <= 6.0\nentropy = 0.619\nsamples = 26\nvalue = [22, 4]"] ;
605 -> 619 ;
620 [label="entropy = 0.0\nsamples = 13\nvalue = [13, 0]"] ;
619 -> 620 ;
621 [label="X[4] <= 207.0\nentropy = 0.89\nsamples = 13\nvalue = [9, 4]"] ;
619 -> 621 ;
622 [label="entropy = 0.0\nsamples = 6\nvalue = [6, 0]"] ;
621 -> 622 ;
623 [label="X[0] <= 33.94\nentropy = 0.985\nsamples = 7\nvalue = [3, 4]"] ;
621 -> 623 ;
624 [label="X[4] <= 218.0\nentropy = 0.811\nsamples = 4\nvalue = [3, 1]"] ;
623 -> 624 ;
625 [label="X[1] <= 40.33\nentropy = 1.0\nsamples = 2\nvalue = [1, 1]"] ;
624 -> 625 ;
626 [label="entropy = 0.0\nsamples = 1\nvalue = [0, 1]"] ;
625 -> 626 ;
627 [label="entropy = 0.0\nsamples = 1\nvalue = [1, 0]"] ;
625 -> 627 ;
628 [label="entropy = 0.0\nsamples = 2\nvalue = [2, 0]"] ;
624 -> 628 ;
629 [label="entropy = 0.0\nsamples = 3\nvalue = [0, 3]"] ;
623 -> 629 ;
630 [label="X[3] <= 9.5\nentropy = 0.503\nsamples = 72\nvalue = [64, 8]"] ;
604 -> 630 ;
631 [label="X[2] <= 4.835\nentropy = 0.465\nsamples = 71\nvalue = [64, 7]"] ;
630 -> 631 ;
632 [label="entropy = 0.0\nsamples = 16\nvalue = [16, 0]"] ;
631 -> 632 ;
633 [label="X[0] <= 38.665\nentropy = 0.55\nsamples = 55\nvalue = [48, 7]"] ;
631 -> 633 ;
634 [label="entropy = 0.0\nsamples = 12\nvalue = [12, 0]"] ;
633 -> 634 ;
635 [label="X[2] <= 7.5\nentropy = 0.641\nsamples = 43\nvalue = [36, 7]"] ;
633 -> 635 ;
636 [label="X[1] <= 18.835\nentropy = 0.918\nsamples = 12\nvalue = [8, 4]"] ;
635 -> 636 ;
637 [label="entropy = 0.0\nsamples = 5\nvalue = [5, 0]"] ;
636 -> 637 ;
638 [label="X[4] <= 186.5\nentropy = 0.985\nsamples = 7\nvalue = [3, 4]"] ;
636 -> 638 ;
639 [label="entropy = 0.0\nsamples = 2\nvalue = [0, 2]"] ;
638 -> 639 ;
640 [label="X[0] <= 40.69\nentropy = 0.971\nsamples = 5\nvalue = [3, 2]"] ;
638 -> 640 ;
641 [label="entropy = 0.0\nsamples = 3\nvalue = [3, 0]"] ;
640 -> 641 ;
642 [label="entropy = 0.0\nsamples = 2\nvalue = [0, 2]"] ;
640 -> 642 ;
643 [label="X[1] <= 15.165\nentropy = 0.459\nsamples = 31\nvalue = [28, 3]"] ;
635 -> 643 ;
644 [label="entropy = 0.0\nsamples = 1\nvalue = [0, 1]"] ;
643 -> 644 ;
645 [label="X[2] <= 13.835\nentropy = 0.353\nsamples = 30\nvalue = [28, 2]"] ;
643 -> 645 ;
646 [label="entropy = 0.0\nsamples = 15\nvalue = [15, 0]"] ;
645 -> 646 ;
647 [label="X[2] <= 14.335\nentropy = 0.567\nsamples = 15\nvalue = [13, 2]"] ;
645 -> 647 ;
648 [label="entropy = 0.0\nsamples = 1\nvalue = [0, 1]"] ;
647 -> 648 ;
649 [label="X[0] <= 39.29\nentropy = 0.371\nsamples = 14\nvalue = [13, 1]"] ;
647 -> 649 ;
650 [label="X[1] <= 44.335\nentropy = 0.918\nsamples = 3\nvalue = [2, 1]"] ;
649 -> 650 ;
651 [label="entropy = 0.0\nsamples = 1\nvalue = [0, 1]"] ;
650 -> 651 ;
652 [label="entropy = 0.0\nsamples = 2\nvalue = [2, 0]"] ;
650 -> 652 ;
653 [label="entropy = 0.0\nsamples = 11\nvalue = [11, 0]"] ;
649 -> 653 ;
654 [label="entropy = 0.0\nsamples = 1\nvalue = [0, 1]"] ;
630 -> 654 ;
655 [label="X[4] <= 226.5\nentropy = 0.962\nsamples = 415\nvalue = [255, 160]"] ;
503 -> 655 ;
656 [label="X[0] <= 67.22\nentropy = 0.951\nsamples = 397\nvalue = [250, 147]"] ;
655 -> 656 ;
657 [label="X[0] <= 63.085\nentropy = 0.965\nsamples = 353\nvalue = [215, 138]"] ;
656 -> 657 ;
658 [label="X[1] <= 8.5\nentropy = 0.944\nsamples = 318\nvalue = [203, 115]"] ;
657 -> 658 ;
659 [label="X[2] <= 4.83\nentropy = 0.996\nsamples = 78\nvalue = [42, 36]"] ;
658 -> 659 ;
660 [label="X[4] <= 22.0\nentropy = 0.987\nsamples = 74\nvalue = [42, 32]"] ;
659 -> 660 ;
661 [label="entropy = 0.0\nsamples = 4\nvalue = [4, 0]"] ;
660 -> 661 ;
662 [label="X[3] <= 8.5\nentropy = 0.995\nsamples = 70\nvalue = [38, 32]"] ;
660 -> 662 ;
663 [label="X[4] <= 80.5\nentropy = 0.982\nsamples = 64\nvalue = [37, 27]"] ;
662 -> 663 ;
664 [label="entropy = 0.0\nsamples = 5\nvalue = [5, 0]"] ;
663 -> 664 ;
665 [label="X[2] <= 3.0\nentropy = 0.995\nsamples = 59\nvalue = [32, 27]"] ;
663 -> 665 ;
666 [label="X[4] <= 148.0\nentropy = 0.981\nsamples = 55\nvalue = [32, 23]"] ;
665 -> 666 ;
667 [label="entropy = 0.0\nsamples = 3\nvalue = [0, 3]"] ;
666 -> 667 ;
668 [label="X[4] <= 183.5\nentropy = 0.961\nsamples = 52\nvalue = [32, 20]"] ;
666 -> 668 ;
669 [label="entropy = 0.0\nsamples = 7\nvalue = [7, 0]"] ;
668 -> 669 ;
670 [label="X[1] <= 3.0\nentropy = 0.991\nsamples = 45\nvalue = [25, 20]"] ;
668 -> 670 ;
671 [label="X[0] <= 57.16\nentropy = 0.779\nsamples = 13\nvalue = [10, 3]"] ;
670 -> 671 ;
672 [label="X[0] <= 46.66\nentropy = 0.954\nsamples = 8\nvalue = [5, 3]"] ;
671 -> 672 ;
673 [label="entropy = 0.0\nsamples = 2\nvalue = [2, 0]"] ;
672 -> 673 ;
674 [label="X[1] <= 2.165\nentropy = 1.0\nsamples = 6\nvalue = [3, 3]"] ;
672 -> 674 ;
675 [label="X[4] <= 212.5\nentropy = 0.811\nsamples = 4\nvalue = [1, 3]"] ;
674 -> 675 ;
676 [label="entropy = 0.0\nsamples = 3\nvalue = [0, 3]"] ;
675 -> 676 ;
677 [label="entropy = 0.0\nsamples = 1\nvalue = [1, 0]"] ;
675 -> 677 ;
678 [label="entropy = 0.0\nsamples = 2\nvalue = [2, 0]"] ;
674 -> 678 ;
679 [label="entropy = 0.0\nsamples = 5\nvalue = [5, 0]"] ;
671 -> 679 ;
680 [label="X[1] <= 7.5\nentropy = 0.997\nsamples = 32\nvalue = [15, 17]"] ;
670 -> 680 ;
681 [label="X[3] <= 6.5\nentropy = 0.975\nsamples = 27\nvalue = [11, 16]"] ;
680 -> 681 ;
682 [label="entropy = 0.0\nsamples = 3\nvalue = [0, 3]"] ;
681 -> 682 ;
683 [label="X[4] <= 207.5\nentropy = 0.995\nsamples = 24\nvalue = [11, 13]"] ;
681 -> 683 ;
684 [label="X[1] <= 5.665\nentropy = 0.961\nsamples = 13\nvalue = [8, 5]"] ;
683 -> 684 ;
685 [label="X[1] <= 4.835\nentropy = 0.991\nsamples = 9\nvalue = [4, 5]"] ;
684 -> 685 ;
686 [label="X[4] <= 201.5\nentropy = 0.985\nsamples = 7\nvalue = [4, 3]"] ;
685 -> 686 ;
687 [label="X[2] <= 1.0\nentropy = 0.971\nsamples = 5\nvalue = [2, 3]"] ;
686 -> 687 ;
688 [label="entropy = 0.0\nsamples = 2\nvalue = [0, 2]"] ;
687 -> 688 ;
689 [label="X[4] <= 194.0\nentropy = 0.918\nsamples = 3\nvalue = [2, 1]"] ;
687 -> 689 ;
690 [label="entropy = 0.0\nsamples = 1\nvalue = [1, 0]"] ;
689 -> 690 ;
691 [label="X[1] <= 3.83\nentropy = 1.0\nsamples = 2\nvalue = [1, 1]"] ;
689 -> 691 ;
692 [label="entropy = 0.0\nsamples = 1\nvalue = [1, 0]"] ;
691 -> 692 ;
693 [label="entropy = 0.0\nsamples = 1\nvalue = [0, 1]"] ;
691 -> 693 ;
694 [label="entropy = 0.0\nsamples = 2\nvalue = [2, 0]"] ;
686 -> 694 ;
695 [label="entropy = 0.0\nsamples = 2\nvalue = [0, 2]"] ;
685 -> 695 ;
696 [label="entropy = 0.0\nsamples = 4\nvalue = [4, 0]"] ;
684 -> 696 ;
697 [label="X[4] <= 214.0\nentropy = 0.845\nsamples = 11\nvalue = [3, 8]"] ;
683 -> 697 ;
698 [label="entropy = 0.0\nsamples = 6\nvalue = [0, 6]"] ;
697 -> 698 ;
699 [label="X[4] <= 219.5\nentropy = 0.971\nsamples = 5\nvalue = [3, 2]"] ;
697 -> 699 ;
700 [label="entropy = 0.0\nsamples = 3\nvalue = [3, 0]"] ;
699 -> 700 ;
701 [label="entropy = 0.0\nsamples = 2\nvalue = [0, 2]"] ;
699 -> 701 ;
702 [label="X[0] <= 58.79\nentropy = 0.722\nsamples = 5\nvalue = [4, 1]"] ;
680 -> 702 ;
703 [label="entropy = 0.0\nsamples = 4\nvalue = [4, 0]"] ;
702 -> 703 ;
704 [label="entropy = 0.0\nsamples = 1\nvalue = [0, 1]"] ;
702 -> 704 ;
705 [label="entropy = 0.0\nsamples = 4\nvalue = [0, 4]"] ;
665 -> 705 ;
706 [label="X[0] <= 62.025\nentropy = 0.65\nsamples = 6\nvalue = [1, 5]"] ;
662 -> 706 ;
707 [label="entropy = 0.0\nsamples = 5\nvalue = [0, 5]"] ;
706 -> 707 ;
708 [label="entropy = 0.0\nsamples = 1\nvalue = [1, 0]"] ;
706 -> 708 ;
709 [label="entropy = 0.0\nsamples = 4\nvalue = [0, 4]"] ;
659 -> 709 ;
710 [label="X[4] <= 223.5\nentropy = 0.914\nsamples = 240\nvalue = [161, 79]"] ;
658 -> 710 ;
711 [label="X[0] <= 44.71\nentropy = 0.924\nsamples = 233\nvalue = [154, 79]"] ;
710 -> 711 ;
712 [label="entropy = 0.0\nsamples = 2\nvalue = [0, 2]"] ;
711 -> 712 ;
713 [label="X[1] <= 28.5\nentropy = 0.918\nsamples = 231\nvalue = [154, 77]"] ;
711 -> 713 ;
714 [label="X[4] <= 218.5\nentropy = 0.859\nsamples = 131\nvalue = [94, 37]"] ;
713 -> 714 ;
715 [label="X[4] <= 211.5\nentropy = 0.888\nsamples = 121\nvalue = [84, 37]"] ;
714 -> 715 ;
716 [label="X[2] <= 2.5\nentropy = 0.842\nsamples = 111\nvalue = [81, 30]"] ;
715 -> 716 ;
717 [label="X[4] <= 202.5\nentropy = 0.959\nsamples = 55\nvalue = [34, 21]"] ;
716 -> 717 ;
718 [label="X[1] <= 12.335\nentropy = 0.981\nsamples = 50\nvalue = [29, 21]"] ;
717 -> 718 ;
719 [label="X[4] <= 24.0\nentropy = 0.65\nsamples = 12\nvalue = [10, 2]"] ;
718 -> 719 ;
720 [label="entropy = 0.0\nsamples = 1\nvalue = [0, 1]"] ;
719 -> 720 ;
721 [label="X[0] <= 56.35\nentropy = 0.439\nsamples = 11\nvalue = [10, 1]"] ;
719 -> 721 ;
722 [label="entropy = 0.0\nsamples = 9\nvalue = [9, 0]"] ;
721 -> 722 ;
723 [label="X[0] <= 59.02\nentropy = 1.0\nsamples = 2\nvalue = [1, 1]"] ;
721 -> 723 ;
724 [label="entropy = 0.0\nsamples = 1\nvalue = [0, 1]"] ;
723 -> 724 ;
725 [label="entropy = 0.0\nsamples = 1\nvalue = [1, 0]"] ;
723 -> 725 ;
726 [label="X[1] <= 13.165\nentropy = 1.0\nsamples = 38\nvalue = [19, 19]"] ;
718 -> 726 ;
727 [label="entropy = 0.0\nsamples = 2\nvalue = [0, 2]"] ;
726 -> 727 ;
728 [label="X[0] <= 45.795\nentropy = 0.998\nsamples = 36\nvalue = [19, 17]"] ;
726 -> 728 ;
729 [label="entropy = 0.0\nsamples = 3\nvalue = [3, 0]"] ;
728 -> 729 ;
730 [label="X[0] <= 47.765\nentropy = 0.999\nsamples = 33\nvalue = [16, 17]"] ;
728 -> 730 ;
731 [label="entropy = 0.0\nsamples = 3\nvalue = [0, 3]"] ;
730 -> 731 ;
732 [label="X[1] <= 16.5\nentropy = 0.997\nsamples = 30\nvalue = [16, 14]"] ;
730 -> 732 ;
733 [label="X[2] <= 0.165\nentropy = 0.918\nsamples = 15\nvalue = [10, 5]"] ;
732 -> 733 ;
734 [label="entropy = 0.0\nsamples = 5\nvalue = [5, 0]"] ;
733 -> 734 ;
735 [label="X[0] <= 52.845\nentropy = 1.0\nsamples = 10\nvalue = [5, 5]"] ;
733 -> 735 ;
736 [label="X[1] <= 15.165\nentropy = 0.722\nsamples = 5\nvalue = [4, 1]"] ;
735 -> 736 ;
737 [label="entropy = 0.0\nsamples = 4\nvalue = [4, 0]"] ;
736 -> 737 ;
738 [label="entropy = 0.0\nsamples = 1\nvalue = [0, 1]"] ;
736 -> 738 ;
739 [label="X[4] <= 198.5\nentropy = 0.722\nsamples = 5\nvalue = [1, 4]"] ;
735 -> 739 ;
740 [label="entropy = 0.0\nsamples = 4\nvalue = [0, 4]"] ;
739 -> 740 ;
741 [label="entropy = 0.0\nsamples = 1\nvalue = [1, 0]"] ;
739 -> 741 ;
742 [label="X[1] <= 22.17\nentropy = 0.971\nsamples = 15\nvalue = [6, 9]"] ;
732 -> 742 ;
743 [label="X[0] <= 55.835\nentropy = 0.592\nsamples = 7\nvalue = [1, 6]"] ;
742 -> 743 ;
744 [label="entropy = 0.0\nsamples = 5\nvalue = [0, 5]"] ;
743 -> 744 ;
745 [label="X[2] <= 2.165\nentropy = 1.0\nsamples = 2\nvalue = [1, 1]"] ;
743 -> 745 ;
746 [label="entropy = 0.0\nsamples = 1\nvalue = [1, 0]"] ;
745 -> 746 ;
747 [label="entropy = 0.0\nsamples = 1\nvalue = [0, 1]"] ;
745 -> 747 ;
748 [label="X[4] <= 199.5\nentropy = 0.954\nsamples = 8\nvalue = [5, 3]"] ;
742 -> 748 ;
749 [label="X[4] <= 88.5\nentropy = 0.65\nsamples = 6\nvalue = [5, 1]"] ;
748 -> 749 ;
750 [label="entropy = 0.0\nsamples = 1\nvalue = [0, 1]"] ;
749 -> 750 ;
751 [label="entropy = 0.0\nsamples = 5\nvalue = [5, 0]"] ;
749 -> 751 ;
752 [label="entropy = 0.0\nsamples = 2\nvalue = [0, 2]"] ;
748 -> 752 ;
753 [label="entropy = 0.0\nsamples = 5\nvalue = [5, 0]"] ;
717 -> 753 ;
754 [label="X[0] <= 47.785\nentropy = 0.636\nsamples = 56\nvalue = [47, 9]"] ;
716 -> 754 ;
755 [label="entropy = 0.0\nsamples = 10\nvalue = [10, 0]"] ;
754 -> 755 ;
756 [label="X[1] <= 12.165\nentropy = 0.713\nsamples = 46\nvalue = [37, 9]"] ;
754 -> 756 ;
757 [label="X[1] <= 9.83\nentropy = 1.0\nsamples = 8\nvalue = [4, 4]"] ;
756 -> 757 ;
758 [label="entropy = 0.0\nsamples = 3\nvalue = [3, 0]"] ;
757 -> 758 ;
759 [label="X[0] <= 60.7\nentropy = 0.722\nsamples = 5\nvalue = [1, 4]"] ;
757 -> 759 ;
760 [label="entropy = 0.0\nsamples = 4\nvalue = [0, 4]"] ;
759 -> 760 ;
761 [label="entropy = 0.0\nsamples = 1\nvalue = [1, 0]"] ;
759 -> 761 ;
762 [label="X[1] <= 17.165\nentropy = 0.562\nsamples = 38\nvalue = [33, 5]"] ;
756 -> 762 ;
763 [label="entropy = 0.0\nsamples = 14\nvalue = [14, 0]"] ;
762 -> 763 ;
764 [label="X[0] <= 49.545\nentropy = 0.738\nsamples = 24\nvalue = [19, 5]"] ;
762 -> 764 ;
765 [label="entropy = 0.0\nsamples = 1\nvalue = [0, 1]"] ;
764 -> 765 ;
766 [label="X[1] <= 17.665\nentropy = 0.667\nsamples = 23\nvalue = [19, 4]"] ;
764 -> 766 ;
767 [label="entropy = 0.0\nsamples = 1\nvalue = [0, 1]"] ;
766 -> 767 ;
768 [label="X[0] <= 53.57\nentropy = 0.575\nsamples = 22\nvalue = [19, 3]"] ;
766 -> 768 ;
769 [label="entropy = 0.0\nsamples = 11\nvalue = [11, 0]"] ;
768 -> 769 ;
770 [label="X[0] <= 54.835\nentropy = 0.845\nsamples = 11\nvalue = [8, 3]"] ;
768 -> 770 ;
771 [label="entropy = 0.0\nsamples = 2\nvalue = [0, 2]"] ;
770 -> 771 ;
772 [label="X[0] <= 59.915\nentropy = 0.503\nsamples = 9\nvalue = [8, 1]"] ;
770 -> 772 ;
773 [label="entropy = 0.0\nsamples = 8\nvalue = [8, 0]"] ;
772 -> 773 ;
774 [label="entropy = 0.0\nsamples = 1\nvalue = [0, 1]"] ;
772 -> 774 ;
775 [label="X[0] <= 53.115\nentropy = 0.881\nsamples = 10\nvalue = [3, 7]"] ;
715 -> 775 ;
776 [label="entropy = 0.0\nsamples = 4\nvalue = [0, 4]"] ;
775 -> 776 ;
777 [label="X[0] <= 54.395\nentropy = 1.0\nsamples = 6\nvalue = [3, 3]"] ;
775 -> 777 ;
778 [label="entropy = 0.0\nsamples = 2\nvalue = [2, 0]"] ;
777 -> 778 ;
779 [label="X[1] <= 10.835\nentropy = 0.811\nsamples = 4\nvalue = [1, 3]"] ;
777 -> 779 ;
780 [label="entropy = 0.0\nsamples = 1\nvalue = [1, 0]"] ;
779 -> 780 ;
781 [label="entropy = 0.0\nsamples = 3\nvalue = [0, 3]"] ;
779 -> 781 ;
782 [label="entropy = 0.0\nsamples = 10\nvalue = [10, 0]"] ;
714 -> 782 ;
783 [label="X[1] <= 63.165\nentropy = 0.971\nsamples = 100\nvalue = [60, 40]"] ;
713 -> 783 ;
784 [label="X[2] <= 0.5\nentropy = 0.98\nsamples = 96\nvalue = [56, 40]"] ;
783 -> 784 ;
785 [label="entropy = 0.0\nsamples = 3\nvalue = [3, 0]"] ;
784 -> 785 ;
786 [label="X[0] <= 62.945\nentropy = 0.986\nsamples = 93\nvalue = [53, 40]"] ;
784 -> 786 ;
787 [label="X[4] <= 8.5\nentropy = 0.991\nsamples = 90\nvalue = [50, 40]"] ;
786 -> 787 ;
788 [label="entropy = 0.0\nsamples = 2\nvalue = [0, 2]"] ;
787 -> 788 ;
789 [label="X[0] <= 62.45\nentropy = 0.987\nsamples = 88\nvalue = [50, 38]"] ;
787 -> 789 ;
790 [label="X[0] <= 60.42\nentropy = 0.981\nsamples = 86\nvalue = [50, 36]"] ;
789 -> 790 ;
791 [label="X[0] <= 57.3\nentropy = 0.991\nsamples = 79\nvalue = [44, 35]"] ;
790 -> 791 ;
792 [label="X[4] <= 69.5\nentropy = 0.965\nsamples = 64\nvalue = [39, 25]"] ;
791 -> 792 ;
793 [label="entropy = 0.0\nsamples = 5\nvalue = [5, 0]"] ;
792 -> 793 ;
794 [label="X[4] <= 81.5\nentropy = 0.983\nsamples = 59\nvalue = [34, 25]"] ;
792 -> 794 ;
795 [label="entropy = 0.0\nsamples = 2\nvalue = [0, 2]"] ;
794 -> 795 ;
796 [label="X[1] <= 57.835\nentropy = 0.973\nsamples = 57\nvalue = [34, 23]"] ;
794 -> 796 ;
797 [label="X[1] <= 41.165\nentropy = 0.943\nsamples = 50\nvalue = [32, 18]"] ;
796 -> 797 ;
798 [label="X[0] <= 55.54\nentropy = 0.997\nsamples = 32\nvalue = [17, 15]"] ;
797 -> 798 ;
799 [label="X[4] <= 218.0\nentropy = 0.983\nsamples = 26\nvalue = [11, 15]"] ;
798 -> 799 ;
800 [label="X[1] <= 32.5\nentropy = 0.954\nsamples = 24\nvalue = [9, 15]"] ;
799 -> 800 ;
801 [label="X[2] <= 5.335\nentropy = 0.971\nsamples = 10\nvalue = [6, 4]"] ;
800 -> 801 ;
802 [label="entropy = 0.0\nsamples = 3\nvalue = [3, 0]"] ;
801 -> 802 ;
803 [label="X[0] <= 51.74\nentropy = 0.985\nsamples = 7\nvalue = [3, 4]"] ;
801 -> 803 ;
804 [label="X[4] <= 184.5\nentropy = 0.811\nsamples = 4\nvalue = [3, 1]"] ;
803 -> 804 ;
805 [label="entropy = 0.0\nsamples = 1\nvalue = [0, 1]"] ;
804 -> 805 ;
806 [label="entropy = 0.0\nsamples = 3\nvalue = [3, 0]"] ;
804 -> 806 ;
807 [label="entropy = 0.0\nsamples = 3\nvalue = [0, 3]"] ;
803 -> 807 ;
808 [label="X[4] <= 91.0\nentropy = 0.75\nsamples = 14\nvalue = [3, 11]"] ;
800 -> 808 ;
809 [label="entropy = 0.0\nsamples = 1\nvalue = [1, 0]"] ;
808 -> 809 ;
810 [label="X[4] <= 207.0\nentropy = 0.619\nsamples = 13\nvalue = [2, 11]"] ;
808 -> 810 ;
811 [label="entropy = 0.0\nsamples = 9\nvalue = [0, 9]"] ;
810 -> 811 ;
812 [label="X[0] <= 49.6\nentropy = 1.0\nsamples = 4\nvalue = [2, 2]"] ;
810 -> 812 ;
813 [label="entropy = 0.0\nsamples = 2\nvalue = [0, 2]"] ;
812 -> 813 ;
814 [label="entropy = 0.0\nsamples = 2\nvalue = [2, 0]"] ;
812 -> 814 ;
815 [label="entropy = 0.0\nsamples = 2\nvalue = [2, 0]"] ;
799 -> 815 ;
816 [label="entropy = 0.0\nsamples = 6\nvalue = [6, 0]"] ;
798 -> 816 ;
817 [label="X[2] <= 2.5\nentropy = 0.65\nsamples = 18\nvalue = [15, 3]"] ;
797 -> 817 ;
818 [label="entropy = 0.0\nsamples = 1\nvalue = [0, 1]"] ;
817 -> 818 ;
819 [label="X[0] <= 52.53\nentropy = 0.523\nsamples = 17\nvalue = [15, 2]"] ;
817 -> 819 ;
820 [label="X[0] <= 51.955\nentropy = 0.764\nsamples = 9\nvalue = [7, 2]"] ;
819 -> 820 ;
821 [label="X[4] <= 194.5\nentropy = 0.544\nsamples = 8\nvalue = [7, 1]"] ;
820 -> 821 ;
822 [label="entropy = 0.0\nsamples = 5\nvalue = [5, 0]"] ;
821 -> 822 ;
823 [label="X[2] <= 10.0\nentropy = 0.918\nsamples = 3\nvalue = [2, 1]"] ;
821 -> 823 ;
824 [label="entropy = 0.0\nsamples = 2\nvalue = [2, 0]"] ;
823 -> 824 ;
825 [label="entropy = 0.0\nsamples = 1\nvalue = [0, 1]"] ;
823 -> 825 ;
826 [label="entropy = 0.0\nsamples = 1\nvalue = [0, 1]"] ;
820 -> 826 ;
827 [label="entropy = 0.0\nsamples = 8\nvalue = [8, 0]"] ;
819 -> 827 ;
828 [label="X[2] <= 13.835\nentropy = 0.863\nsamples = 7\nvalue = [2, 5]"] ;
796 -> 828 ;
829 [label="X[2] <= 4.0\nentropy = 0.918\nsamples = 3\nvalue = [2, 1]"] ;
828 -> 829 ;
830 [label="entropy = 0.0\nsamples = 1\nvalue = [0, 1]"] ;
829 -> 830 ;
831 [label="entropy = 0.0\nsamples = 2\nvalue = [2, 0]"] ;
829 -> 831 ;
832 [label="entropy = 0.0\nsamples = 4\nvalue = [0, 4]"] ;
828 -> 832 ;
833 [label="X[0] <= 58.685\nentropy = 0.918\nsamples = 15\nvalue = [5, 10]"] ;
791 -> 833 ;
834 [label="entropy = 0.0\nsamples = 5\nvalue = [0, 5]"] ;
833 -> 834 ;
835 [label="X[1] <= 53.67\nentropy = 1.0\nsamples = 10\nvalue = [5, 5]"] ;
833 -> 835 ;
836 [label="X[1] <= 41.835\nentropy = 0.954\nsamples = 8\nvalue = [5, 3]"] ;
835 -> 836 ;
837 [label="X[1] <= 33.835\nentropy = 0.971\nsamples = 5\nvalue = [2, 3]"] ;
836 -> 837 ;
838 [label="X[4] <= 183.0\nentropy = 0.918\nsamples = 3\nvalue = [2, 1]"] ;
837 -> 838 ;
839 [label="entropy = 0.0\nsamples = 1\nvalue = [0, 1]"] ;
838 -> 839 ;
840 [label="entropy = 0.0\nsamples = 2\nvalue = [2, 0]"] ;
838 -> 840 ;
841 [label="entropy = 0.0\nsamples = 2\nvalue = [0, 2]"] ;
837 -> 841 ;
842 [label="entropy = 0.0\nsamples = 3\nvalue = [3, 0]"] ;
836 -> 842 ;
843 [label="entropy = 0.0\nsamples = 2\nvalue = [0, 2]"] ;
835 -> 843 ;
844 [label="X[0] <= 61.455\nentropy = 0.592\nsamples = 7\nvalue = [6, 1]"] ;
790 -> 844 ;
845 [label="entropy = 0.0\nsamples = 5\nvalue = [5, 0]"] ;
844 -> 845 ;
846 [label="X[4] <= 90.0\nentropy = 1.0\nsamples = 2\nvalue = [1, 1]"] ;
844 -> 846 ;
847 [label="entropy = 0.0\nsamples = 1\nvalue = [1, 0]"] ;
846 -> 847 ;
848 [label="entropy = 0.0\nsamples = 1\nvalue = [0, 1]"] ;
846 -> 848 ;
849 [label="entropy = 0.0\nsamples = 2\nvalue = [0, 2]"] ;
789 -> 849 ;
850 [label="entropy = 0.0\nsamples = 3\nvalue = [3, 0]"] ;
786 -> 850 ;
851 [label="entropy = 0.0\nsamples = 4\nvalue = [4, 0]"] ;
783 -> 851 ;
852 [label="entropy = 0.0\nsamples = 7\nvalue = [7, 0]"] ;
710 -> 852 ;
853 [label="X[0] <= 64.245\nentropy = 0.928\nsamples = 35\nvalue = [12, 23]"] ;
657 -> 853 ;
854 [label="X[2] <= 0.835\nentropy = 0.619\nsamples = 13\nvalue = [2, 11]"] ;
853 -> 854 ;
855 [label="X[3] <= 6.5\nentropy = 1.0\nsamples = 4\nvalue = [2, 2]"] ;
854 -> 855 ;
856 [label="entropy = 0.0\nsamples = 1\nvalue = [0, 1]"] ;
855 -> 856 ;
857 [label="X[4] <= 205.0\nentropy = 0.918\nsamples = 3\nvalue = [2, 1]"] ;
855 -> 857 ;
858 [label="entropy = 0.0\nsamples = 2\nvalue = [2, 0]"] ;
857 -> 858 ;
859 [label="entropy = 0.0\nsamples = 1\nvalue = [0, 1]"] ;
857 -> 859 ;
860 [label="entropy = 0.0\nsamples = 9\nvalue = [0, 9]"] ;
854 -> 860 ;
861 [label="X[2] <= 15.335\nentropy = 0.994\nsamples = 22\nvalue = [10, 12]"] ;
853 -> 861 ;
862 [label="X[1] <= 11.165\nentropy = 0.918\nsamples = 18\nvalue = [6, 12]"] ;
861 -> 862 ;
863 [label="entropy = 0.0\nsamples = 2\nvalue = [2, 0]"] ;
862 -> 863 ;
864 [label="X[4] <= 207.5\nentropy = 0.811\nsamples = 16\nvalue = [4, 12]"] ;
862 -> 864 ;
865 [label="X[1] <= 35.165\nentropy = 0.946\nsamples = 11\nvalue = [4, 7]"] ;
864 -> 865 ;
866 [label="X[0] <= 65.26\nentropy = 1.0\nsamples = 8\nvalue = [4, 4]"] ;
865 -> 866 ;
867 [label="entropy = 0.0\nsamples = 2\nvalue = [0, 2]"] ;
866 -> 867 ;
868 [label="X[2] <= 0.5\nentropy = 0.918\nsamples = 6\nvalue = [4, 2]"] ;
866 -> 868 ;
869 [label="entropy = 0.0\nsamples = 1\nvalue = [0, 1]"] ;
868 -> 869 ;
870 [label="X[3] <= 6.5\nentropy = 0.722\nsamples = 5\nvalue = [4, 1]"] ;
868 -> 870 ;
871 [label="X[2] <= 3.33\nentropy = 1.0\nsamples = 2\nvalue = [1, 1]"] ;
870 -> 871 ;
872 [label="entropy = 0.0\nsamples = 1\nvalue = [1, 0]"] ;
871 -> 872 ;
873 [label="entropy = 0.0\nsamples = 1\nvalue = [0, 1]"] ;
871 -> 873 ;
874 [label="entropy = 0.0\nsamples = 3\nvalue = [3, 0]"] ;
870 -> 874 ;
875 [label="entropy = 0.0\nsamples = 3\nvalue = [0, 3]"] ;
865 -> 875 ;
876 [label="entropy = 0.0\nsamples = 5\nvalue = [0, 5]"] ;
864 -> 876 ;
877 [label="entropy = 0.0\nsamples = 4\nvalue = [4, 0]"] ;
861 -> 877 ;
878 [label="X[0] <= 70.06\nentropy = 0.731\nsamples = 44\nvalue = [35, 9]"] ;
656 -> 878 ;
879 [label="X[1] <= 48.0\nentropy = 0.391\nsamples = 26\nvalue = [24, 2]"] ;
878 -> 879 ;
880 [label="entropy = 0.0\nsamples = 24\nvalue = [24, 0]"] ;
879 -> 880 ;
881 [label="entropy = 0.0\nsamples = 2\nvalue = [0, 2]"] ;
879 -> 881 ;
882 [label="X[1] <= 19.17\nentropy = 0.964\nsamples = 18\nvalue = [11, 7]"] ;
878 -> 882 ;
883 [label="entropy = 0.0\nsamples = 8\nvalue = [8, 0]"] ;
882 -> 883 ;
884 [label="X[6] <= 0.5\nentropy = 0.881\nsamples = 10\nvalue = [3, 7]"] ;
882 -> 884 ;
885 [label="X[1] <= 50.0\nentropy = 0.544\nsamples = 8\nvalue = [1, 7]"] ;
884 -> 885 ;
886 [label="entropy = 0.0\nsamples = 7\nvalue = [0, 7]"] ;
885 -> 886 ;
887 [label="entropy = 0.0\nsamples = 1\nvalue = [1, 0]"] ;
885 -> 887 ;
888 [label="entropy = 0.0\nsamples = 2\nvalue = [2, 0]"] ;
884 -> 888 ;
889 [label="X[0] <= 61.895\nentropy = 0.852\nsamples = 18\nvalue = [5, 13]"] ;
655 -> 889 ;
890 [label="X[1] <= 55.665\nentropy = 0.696\nsamples = 16\nvalue = [3, 13]"] ;
889 -> 890 ;
891 [label="X[0] <= 45.045\nentropy = 0.567\nsamples = 15\nvalue = [2, 13]"] ;
890 -> 891 ;
892 [label="entropy = 0.0\nsamples = 1\nvalue = [1, 0]"] ;
891 -> 892 ;
893 [label="X[1] <= 26.5\nentropy = 0.371\nsamples = 14\nvalue = [1, 13]"] ;
891 -> 893 ;
894 [label="entropy = 0.0\nsamples = 11\nvalue = [0, 11]"] ;
893 -> 894 ;
895 [label="X[2] <= 12.17\nentropy = 0.918\nsamples = 3\nvalue = [1, 2]"] ;
893 -> 895 ;
896 [label="entropy = 0.0\nsamples = 1\nvalue = [1, 0]"] ;
895 -> 896 ;
897 [label="entropy = 0.0\nsamples = 2\nvalue = [0, 2]"] ;
895 -> 897 ;
898 [label="entropy = 0.0\nsamples = 1\nvalue = [1, 0]"] ;
890 -> 898 ;
899 [label="entropy = 0.0\nsamples = 2\nvalue = [2, 0]"] ;
889 -> 899 ;
900 [label="X[0] <= 32.92\nentropy = 0.829\nsamples = 394\nvalue = [291, 103]"] ;
502 -> 900 ;
901 [label="X[4] <= 301.5\nentropy = 0.559\nsamples = 46\nvalue = [40, 6]"] ;
900 -> 901 ;
902 [label="X[4] <= 281.0\nentropy = 0.503\nsamples = 45\nvalue = [40, 5]"] ;
901 -> 902 ;
903 [label="X[0] <= 31.18\nentropy = 0.722\nsamples = 25\nvalue = [20, 5]"] ;
902 -> 903 ;
904 [label="X[4] <= 271.5\nentropy = 0.874\nsamples = 17\nvalue = [12, 5]"] ;
903 -> 904 ;
905 [label="X[5] <= 0.5\nentropy = 0.722\nsamples = 15\nvalue = [12, 3]"] ;
904 -> 905 ;
906 [label="entropy = 0.0\nsamples = 1\nvalue = [0, 1]"] ;
905 -> 906 ;
907 [label="X[0] <= 30.895\nentropy = 0.592\nsamples = 14\nvalue = [12, 2]"] ;
905 -> 907 ;
908 [label="entropy = 0.0\nsamples = 9\nvalue = [9, 0]"] ;
907 -> 908 ;
909 [label="X[3] <= 8.5\nentropy = 0.971\nsamples = 5\nvalue = [3, 2]"] ;
907 -> 909 ;
910 [label="X[4] <= 239.5\nentropy = 0.918\nsamples = 3\nvalue = [1, 2]"] ;
909 -> 910 ;
911 [label="entropy = 0.0\nsamples = 1\nvalue = [1, 0]"] ;
910 -> 911 ;
912 [label="entropy = 0.0\nsamples = 2\nvalue = [0, 2]"] ;
910 -> 912 ;
913 [label="entropy = 0.0\nsamples = 2\nvalue = [2, 0]"] ;
909 -> 913 ;
914 [label="entropy = 0.0\nsamples = 2\nvalue = [0, 2]"] ;
904 -> 914 ;
915 [label="entropy = 0.0\nsamples = 8\nvalue = [8, 0]"] ;
903 -> 915 ;
916 [label="entropy = 0.0\nsamples = 20\nvalue = [20, 0]"] ;
902 -> 916 ;
917 [label="entropy = 0.0\nsamples = 1\nvalue = [0, 1]"] ;
901 -> 917 ;
918 [label="X[0] <= 45.64\nentropy = 0.854\nsamples = 348\nvalue = [251, 97]"] ;
900 -> 918 ;
919 [label="X[6] <= 0.5\nentropy = 0.929\nsamples = 154\nvalue = [101, 53]"] ;
918 -> 919 ;
920 [label="X[0] <= 33.25\nentropy = 0.95\nsamples = 141\nvalue = [89, 52]"] ;
919 -> 920 ;
921 [label="entropy = 0.0\nsamples = 2\nvalue = [0, 2]"] ;
920 -> 921 ;
922 [label="X[2] <= 6.835\nentropy = 0.942\nsamples = 139\nvalue = [89, 50]"] ;
920 -> 922 ;
923 [label="X[2] <= 6.5\nentropy = 0.973\nsamples = 109\nvalue = [65, 44]"] ;
922 -> 923 ;
924 [label="X[2] <= 5.165\nentropy = 0.963\nsamples = 106\nvalue = [65, 41]"] ;
923 -> 924 ;
925 [label="X[1] <= 23.17\nentropy = 0.977\nsamples = 100\nvalue = [59, 41]"] ;
924 -> 925 ;
926 [label="X[4] <= 237.5\nentropy = 0.958\nsamples = 92\nvalue = [57, 35]"] ;
925 -> 926 ;
927 [label="entropy = 0.0\nsamples = 6\nvalue = [6, 0]"] ;
926 -> 927 ;
928 [label="X[1] <= 22.335\nentropy = 0.975\nsamples = 86\nvalue = [51, 35]"] ;
926 -> 928 ;
929 [label="X[1] <= 19.5\nentropy = 0.982\nsamples = 83\nvalue = [48, 35]"] ;
928 -> 929 ;
930 [label="X[4] <= 257.5\nentropy = 0.975\nsamples = 81\nvalue = [48, 33]"] ;
929 -> 930 ;
931 [label="X[1] <= 4.5\nentropy = 0.828\nsamples = 23\nvalue = [17, 6]"] ;
930 -> 931 ;
932 [label="entropy = 0.0\nsamples = 7\nvalue = [7, 0]"] ;
931 -> 932 ;
933 [label="X[0] <= 38.15\nentropy = 0.954\nsamples = 16\nvalue = [10, 6]"] ;
931 -> 933 ;
934 [label="X[4] <= 246.0\nentropy = 0.994\nsamples = 11\nvalue = [5, 6]"] ;
933 -> 934 ;
935 [label="entropy = 0.0\nsamples = 4\nvalue = [0, 4]"] ;
934 -> 935 ;
936 [label="X[2] <= 1.335\nentropy = 0.863\nsamples = 7\nvalue = [5, 2]"] ;
934 -> 936 ;
937 [label="X[4] <= 248.0\nentropy = 0.918\nsamples = 3\nvalue = [1, 2]"] ;
936 -> 937 ;
938 [label="entropy = 0.0\nsamples = 1\nvalue = [1, 0]"] ;
937 -> 938 ;
939 [label="entropy = 0.0\nsamples = 2\nvalue = [0, 2]"] ;
937 -> 939 ;
940 [label="entropy = 0.0\nsamples = 4\nvalue = [4, 0]"] ;
936 -> 940 ;
941 [label="entropy = 0.0\nsamples = 5\nvalue = [5, 0]"] ;
933 -> 941 ;
942 [label="X[1] <= 13.5\nentropy = 0.997\nsamples = 58\nvalue = [31, 27]"] ;
930 -> 942 ;
943 [label="X[4] <= 261.5\nentropy = 0.991\nsamples = 45\nvalue = [20, 25]"] ;
942 -> 943 ;
944 [label="entropy = 0.0\nsamples = 4\nvalue = [0, 4]"] ;
943 -> 944 ;
945 [label="X[0] <= 37.7\nentropy = 1.0\nsamples = 41\nvalue = [20, 21]"] ;
943 -> 945 ;
946 [label="X[0] <= 36.425\nentropy = 0.954\nsamples = 24\nvalue = [15, 9]"] ;
945 -> 946 ;
947 [label="X[0] <= 36.055\nentropy = 1.0\nsamples = 18\nvalue = [9, 9]"] ;
946 -> 947 ;
948 [label="X[4] <= 273.5\nentropy = 0.94\nsamples = 14\nvalue = [9, 5]"] ;
947 -> 948 ;
949 [label="X[0] <= 35.825\nentropy = 0.918\nsamples = 6\nvalue = [2, 4]"] ;
948 -> 949 ;
950 [label="X[1] <= 3.665\nentropy = 0.722\nsamples = 5\nvalue = [1, 4]"] ;
949 -> 950 ;
951 [label="entropy = 0.0\nsamples = 1\nvalue = [1, 0]"] ;
950 -> 951 ;
952 [label="entropy = 0.0\nsamples = 4\nvalue = [0, 4]"] ;
950 -> 952 ;
953 [label="entropy = 0.0\nsamples = 1\nvalue = [1, 0]"] ;
949 -> 953 ;
954 [label="X[1] <= 11.33\nentropy = 0.544\nsamples = 8\nvalue = [7, 1]"] ;
948 -> 954 ;
955 [label="entropy = 0.0\nsamples = 7\nvalue = [7, 0]"] ;
954 -> 955 ;
956 [label="entropy = 0.0\nsamples = 1\nvalue = [0, 1]"] ;
954 -> 956 ;
957 [label="entropy = 0.0\nsamples = 4\nvalue = [0, 4]"] ;
947 -> 957 ;
958 [label="entropy = 0.0\nsamples = 6\nvalue = [6, 0]"] ;
946 -> 958 ;
959 [label="X[0] <= 39.44\nentropy = 0.874\nsamples = 17\nvalue = [5, 12]"] ;
945 -> 959 ;
960 [label="entropy = 0.0\nsamples = 4\nvalue = [0, 4]"] ;
959 -> 960 ;
961 [label="X[0] <= 40.115\nentropy = 0.961\nsamples = 13\nvalue = [5, 8]"] ;
959 -> 961 ;
962 [label="entropy = 0.0\nsamples = 2\nvalue = [2, 0]"] ;
961 -> 962 ;
963 [label="X[0] <= 41.36\nentropy = 0.845\nsamples = 11\nvalue = [3, 8]"] ;
961 -> 963 ;
964 [label="entropy = 0.0\nsamples = 4\nvalue = [0, 4]"] ;
963 -> 964 ;
965 [label="X[1] <= 1.0\nentropy = 0.985\nsamples = 7\nvalue = [3, 4]"] ;
963 -> 965 ;
966 [label="entropy = 0.0\nsamples = 1\nvalue = [1, 0]"] ;
965 -> 966 ;
967 [label="X[0] <= 41.57\nentropy = 0.918\nsamples = 6\nvalue = [2, 4]"] ;
965 -> 967 ;
968 [label="entropy = 0.0\nsamples = 1\nvalue = [1, 0]"] ;
967 -> 968 ;
969 [label="X[0] <= 44.685\nentropy = 0.722\nsamples = 5\nvalue = [1, 4]"] ;
967 -> 969 ;
970 [label="entropy = 0.0\nsamples = 4\nvalue = [0, 4]"] ;
969 -> 970 ;
971 [label="entropy = 0.0\nsamples = 1\nvalue = [1, 0]"] ;
969 -> 971 ;
972 [label="X[1] <= 16.335\nentropy = 0.619\nsamples = 13\nvalue = [11, 2]"] ;
942 -> 972 ;
973 [label="entropy = 0.0\nsamples = 9\nvalue = [9, 0]"] ;
972 -> 973 ;
974 [label="X[2] <= 1.5\nentropy = 1.0\nsamples = 4\nvalue = [2, 2]"] ;
972 -> 974 ;
975 [label="entropy = 0.0\nsamples = 2\nvalue = [2, 0]"] ;
974 -> 975 ;
976 [label="entropy = 0.0\nsamples = 2\nvalue = [0, 2]"] ;
974 -> 976 ;
977 [label="entropy = 0.0\nsamples = 2\nvalue = [0, 2]"] ;
929 -> 977 ;
978 [label="entropy = 0.0\nsamples = 3\nvalue = [3, 0]"] ;
928 -> 978 ;
979 [label="X[4] <= 261.0\nentropy = 0.811\nsamples = 8\nvalue = [2, 6]"] ;
925 -> 979 ;
980 [label="entropy = 0.0\nsamples = 4\nvalue = [0, 4]"] ;
979 -> 980 ;
981 [label="X[2] <= 1.5\nentropy = 1.0\nsamples = 4\nvalue = [2, 2]"] ;
979 -> 981 ;
982 [label="entropy = 0.0\nsamples = 1\nvalue = [1, 0]"] ;
981 -> 982 ;
983 [label="X[4] <= 272.5\nentropy = 0.918\nsamples = 3\nvalue = [1, 2]"] ;
981 -> 983 ;
984 [label="entropy = 0.0\nsamples = 1\nvalue = [1, 0]"] ;
983 -> 984 ;
985 [label="entropy = 0.0\nsamples = 2\nvalue = [0, 2]"] ;
983 -> 985 ;
986 [label="entropy = 0.0\nsamples = 6\nvalue = [6, 0]"] ;
924 -> 986 ;
987 [label="entropy = 0.0\nsamples = 3\nvalue = [0, 3]"] ;
923 -> 987 ;
988 [label="X[4] <= 280.5\nentropy = 0.722\nsamples = 30\nvalue = [24, 6]"] ;
922 -> 988 ;
989 [label="X[4] <= 257.5\nentropy = 0.544\nsamples = 24\nvalue = [21, 3]"] ;
988 -> 989 ;
990 [label="X[0] <= 43.905\nentropy = 0.811\nsamples = 12\nvalue = [9, 3]"] ;
989 -> 990 ;
991 [label="X[3] <= 8.5\nentropy = 0.684\nsamples = 11\nvalue = [9, 2]"] ;
990 -> 991 ;
992 [label="entropy = 0.0\nsamples = 5\nvalue = [5, 0]"] ;
991 -> 992 ;
993 [label="X[4] <= 248.5\nentropy = 0.918\nsamples = 6\nvalue = [4, 2]"] ;
991 -> 993 ;
994 [label="X[2] <= 31.5\nentropy = 0.918\nsamples = 3\nvalue = [1, 2]"] ;
993 -> 994 ;
995 [label="entropy = 0.0\nsamples = 2\nvalue = [0, 2]"] ;
994 -> 995 ;
996 [label="entropy = 0.0\nsamples = 1\nvalue = [1, 0]"] ;
994 -> 996 ;
997 [label="entropy = 0.0\nsamples = 3\nvalue = [3, 0]"] ;
993 -> 997 ;
998 [label="entropy = 0.0\nsamples = 1\nvalue = [0, 1]"] ;
990 -> 998 ;
999 [label="entropy = 0.0\nsamples = 12\nvalue = [12, 0]"] ;
989 -> 999 ;
1000 [label="X[1] <= 34.5\nentropy = 1.0\nsamples = 6\nvalue = [3, 3]"] ;
988 -> 1000 ;
1001 [label="entropy = 0.0\nsamples = 2\nvalue = [0, 2]"] ;
1000 -> 1001 ;
1002 [label="X[2] <= 21.67\nentropy = 0.811\nsamples = 4\nvalue = [3, 1]"] ;
1000 -> 1002 ;
1003 [label="entropy = 0.0\nsamples = 3\nvalue = [3, 0]"] ;
1002 -> 1003 ;
1004 [label="entropy = 0.0\nsamples = 1\nvalue = [0, 1]"] ;
1002 -> 1004 ;
1005 [label="X[1] <= 22.0\nentropy = 0.391\nsamples = 13\nvalue = [12, 1]"] ;
919 -> 1005 ;
1006 [label="entropy = 0.0\nsamples = 11\nvalue = [11, 0]"] ;
1005 -> 1006 ;
1007 [label="X[0] <= 38.915\nentropy = 1.0\nsamples = 2\nvalue = [1, 1]"] ;
1005 -> 1007 ;
1008 [label="entropy = 0.0\nsamples = 1\nvalue = [1, 0]"] ;
1007 -> 1008 ;
1009 [label="entropy = 0.0\nsamples = 1\nvalue = [0, 1]"] ;
1007 -> 1009 ;
1010 [label="X[0] <= 64.995\nentropy = 0.772\nsamples = 194\nvalue = [150, 44]"] ;
918 -> 1010 ;
1011 [label="X[2] <= 32.165\nentropy = 0.694\nsamples = 161\nvalue = [131, 30]"] ;
1010 -> 1011 ;
1012 [label="X[4] <= 284.5\nentropy = 0.671\nsamples = 159\nvalue = [131, 28]"] ;
1011 -> 1012 ;
1013 [label="X[0] <= 56.435\nentropy = 0.552\nsamples = 117\nvalue = [102, 15]"] ;
1012 -> 1013 ;
1014 [label="X[0] <= 55.755\nentropy = 0.698\nsamples = 69\nvalue = [56, 13]"] ;
1013 -> 1014 ;
1015 [label="X[1] <= 30.835\nentropy = 0.644\nsamples = 67\nvalue = [56, 11]"] ;
1014 -> 1015 ;
1016 [label="X[4] <= 256.5\nentropy = 0.482\nsamples = 48\nvalue = [43, 5]"] ;
1015 -> 1016 ;
1017 [label="entropy = 0.0\nsamples = 22\nvalue = [22, 0]"] ;
1016 -> 1017 ;
1018 [label="X[2] <= 2.5\nentropy = 0.706\nsamples = 26\nvalue = [21, 5]"] ;
1016 -> 1018 ;
1019 [label="X[4] <= 276.0\nentropy = 0.896\nsamples = 16\nvalue = [11, 5]"] ;
1018 -> 1019 ;
1020 [label="X[4] <= 265.5\nentropy = 0.961\nsamples = 13\nvalue = [8, 5]"] ;
1019 -> 1020 ;
1021 [label="X[1] <= 21.5\nentropy = 0.65\nsamples = 6\nvalue = [5, 1]"] ;
1020 -> 1021 ;
1022 [label="entropy = 0.0\nsamples = 5\nvalue = [5, 0]"] ;
1021 -> 1022 ;
1023 [label="entropy = 0.0\nsamples = 1\nvalue = [0, 1]"] ;
1021 -> 1023 ;
1024 [label="X[0] <= 51.58\nentropy = 0.985\nsamples = 7\nvalue = [3, 4]"] ;
1020 -> 1024 ;
1025 [label="X[4] <= 267.5\nentropy = 0.811\nsamples = 4\nvalue = [3, 1]"] ;
1024 -> 1025 ;
1026 [label="entropy = 0.0\nsamples = 1\nvalue = [0, 1]"] ;
1025 -> 1026 ;
1027 [label="entropy = 0.0\nsamples = 3\nvalue = [3, 0]"] ;
1025 -> 1027 ;
1028 [label="entropy = 0.0\nsamples = 3\nvalue = [0, 3]"] ;
1024 -> 1028 ;
1029 [label="entropy = 0.0\nsamples = 3\nvalue = [3, 0]"] ;
1019 -> 1029 ;
1030 [label="entropy = 0.0\nsamples = 10\nvalue = [10, 0]"] ;
1018 -> 1030 ;
1031 [label="X[0] <= 52.87\nentropy = 0.9\nsamples = 19\nvalue = [13, 6]"] ;
1015 -> 1031 ;
1032 [label="X[0] <= 49.84\nentropy = 0.619\nsamples = 13\nvalue = [11, 2]"] ;
1031 -> 1032 ;
1033 [label="X[4] <= 266.5\nentropy = 0.971\nsamples = 5\nvalue = [3, 2]"] ;
1032 -> 1033 ;
1034 [label="X[1] <= 36.165\nentropy = 0.918\nsamples = 3\nvalue = [1, 2]"] ;
1033 -> 1034 ;
1035 [label="entropy = 0.0\nsamples = 1\nvalue = [1, 0]"] ;
1034 -> 1035 ;
1036 [label="entropy = 0.0\nsamples = 2\nvalue = [0, 2]"] ;
1034 -> 1036 ;
1037 [label="entropy = 0.0\nsamples = 2\nvalue = [2, 0]"] ;
1033 -> 1037 ;
1038 [label="entropy = 0.0\nsamples = 8\nvalue = [8, 0]"] ;
1032 -> 1038 ;
1039 [label="X[2] <= 12.665\nentropy = 0.918\nsamples = 6\nvalue = [2, 4]"] ;
1031 -> 1039 ;
1040 [label="entropy = 0.0\nsamples = 4\nvalue = [0, 4]"] ;
1039 -> 1040 ;
1041 [label="entropy = 0.0\nsamples = 2\nvalue = [2, 0]"] ;
1039 -> 1041 ;
1042 [label="entropy = 0.0\nsamples = 2\nvalue = [0, 2]"] ;
1014 -> 1042 ;
1043 [label="X[1] <= 51.33\nentropy = 0.25\nsamples = 48\nvalue = [46, 2]"] ;
1013 -> 1043 ;
1044 [label="entropy = 0.0\nsamples = 40\nvalue = [40, 0]"] ;
1043 -> 1044 ;
1045 [label="X[1] <= 53.5\nentropy = 0.811\nsamples = 8\nvalue = [6, 2]"] ;
1043 -> 1045 ;
1046 [label="entropy = 0.0\nsamples = 2\nvalue = [0, 2]"] ;
1045 -> 1046 ;
1047 [label="entropy = 0.0\nsamples = 6\nvalue = [6, 0]"] ;
1045 -> 1047 ;
1048 [label="X[4] <= 292.5\nentropy = 0.893\nsamples = 42\nvalue = [29, 13]"] ;
1012 -> 1048 ;
1049 [label="X[4] <= 289.0\nentropy = 0.997\nsamples = 15\nvalue = [7, 8]"] ;
1048 -> 1049 ;
1050 [label="X[2] <= 6.665\nentropy = 0.918\nsamples = 9\nvalue = [6, 3]"] ;
1049 -> 1050 ;
1051 [label="X[2] <= 6.0\nentropy = 1.0\nsamples = 6\nvalue = [3, 3]"] ;
1050 -> 1051 ;
1052 [label="X[0] <= 55.2\nentropy = 0.971\nsamples = 5\nvalue = [3, 2]"] ;
1051 -> 1052 ;
1053 [label="X[1] <= 4.17\nentropy = 0.811\nsamples = 4\nvalue = [3, 1]"] ;
1052 -> 1053 ;
1054 [label="entropy = 0.0\nsamples = 1\nvalue = [0, 1]"] ;
1053 -> 1054 ;
1055 [label="entropy = 0.0\nsamples = 3\nvalue = [3, 0]"] ;
1053 -> 1055 ;
1056 [label="entropy = 0.0\nsamples = 1\nvalue = [0, 1]"] ;
1052 -> 1056 ;
1057 [label="entropy = 0.0\nsamples = 1\nvalue = [0, 1]"] ;
1051 -> 1057 ;
1058 [label="entropy = 0.0\nsamples = 3\nvalue = [3, 0]"] ;
1050 -> 1058 ;
1059 [label="X[2] <= 21.83\nentropy = 0.65\nsamples = 6\nvalue = [1, 5]"] ;
1049 -> 1059 ;
1060 [label="entropy = 0.0\nsamples = 5\nvalue = [0, 5]"] ;
1059 -> 1060 ;
1061 [label="entropy = 0.0\nsamples = 1\nvalue = [1, 0]"] ;
1059 -> 1061 ;
1062 [label="X[4] <= 297.5\nentropy = 0.691\nsamples = 27\nvalue = [22, 5]"] ;
1048 -> 1062 ;
1063 [label="entropy = 0.0\nsamples = 9\nvalue = [9, 0]"] ;
1062 -> 1063 ;
1064 [label="X[4] <= 299.5\nentropy = 0.852\nsamples = 18\nvalue = [13, 5]"] ;
1062 -> 1064 ;
1065 [label="X[2] <= 4.0\nentropy = 0.985\nsamples = 7\nvalue = [3, 4]"] ;
1064 -> 1065 ;
1066 [label="entropy = 0.0\nsamples = 2\nvalue = [0, 2]"] ;
1065 -> 1066 ;
1067 [label="X[0] <= 58.155\nentropy = 0.971\nsamples = 5\nvalue = [3, 2]"] ;
1065 -> 1067 ;
1068 [label="entropy = 0.0\nsamples = 2\nvalue = [2, 0]"] ;
1067 -> 1068 ;
1069 [label="X[1] <= 40.0\nentropy = 0.918\nsamples = 3\nvalue = [1, 2]"] ;
1067 -> 1069 ;
1070 [label="entropy = 0.0\nsamples = 1\nvalue = [1, 0]"] ;
1069 -> 1070 ;
1071 [label="entropy = 0.0\nsamples = 2\nvalue = [0, 2]"] ;
1069 -> 1071 ;
1072 [label="X[0] <= 56.75\nentropy = 0.439\nsamples = 11\nvalue = [10, 1]"] ;
1064 -> 1072 ;
1073 [label="entropy = 0.0\nsamples = 7\nvalue = [7, 0]"] ;
1072 -> 1073 ;
1074 [label="X[0] <= 58.715\nentropy = 0.811\nsamples = 4\nvalue = [3, 1]"] ;
1072 -> 1074 ;
1075 [label="entropy = 0.0\nsamples = 1\nvalue = [0, 1]"] ;
1074 -> 1075 ;
1076 [label="entropy = 0.0\nsamples = 3\nvalue = [3, 0]"] ;
1074 -> 1076 ;
1077 [label="entropy = 0.0\nsamples = 2\nvalue = [0, 2]"] ;
1011 -> 1077 ;
1078 [label="X[0] <= 66.225\nentropy = 0.983\nsamples = 33\nvalue = [19, 14]"] ;
1010 -> 1078 ;
1079 [label="entropy = 0.0\nsamples = 3\nvalue = [0, 3]"] ;
1078 -> 1079 ;
1080 [label="X[4] <= 237.5\nentropy = 0.948\nsamples = 30\nvalue = [19, 11]"] ;
1078 -> 1080 ;
1081 [label="entropy = 0.0\nsamples = 2\nvalue = [0, 2]"] ;
1080 -> 1081 ;
1082 [label="X[2] <= 16.165\nentropy = 0.906\nsamples = 28\nvalue = [19, 9]"] ;
1080 -> 1082 ;
1083 [label="X[1] <= 40.83\nentropy = 0.954\nsamples = 24\nvalue = [15, 9]"] ;
1082 -> 1083 ;
1084 [label="X[3] <= 8.5\nentropy = 0.902\nsamples = 22\nvalue = [15, 7]"] ;
1083 -> 1084 ;
1085 [label="X[0] <= 68.405\nentropy = 0.918\nsamples = 6\nvalue = [2, 4]"] ;
1084 -> 1085 ;
1086 [label="entropy = 0.0\nsamples = 3\nvalue = [0, 3]"] ;
1085 -> 1086 ;
1087 [label="X[2] <= 4.5\nentropy = 0.918\nsamples = 3\nvalue = [2, 1]"] ;
1085 -> 1087 ;
1088 [label="entropy = 0.0\nsamples = 2\nvalue = [2, 0]"] ;
1087 -> 1088 ;
1089 [label="entropy = 0.0\nsamples = 1\nvalue = [0, 1]"] ;
1087 -> 1089 ;
1090 [label="X[4] <= 273.0\nentropy = 0.696\nsamples = 16\nvalue = [13, 3]"] ;
1084 -> 1090 ;
1091 [label="entropy = 0.0\nsamples = 7\nvalue = [7, 0]"] ;
1090 -> 1091 ;
1092 [label="X[1] <= 17.835\nentropy = 0.918\nsamples = 9\nvalue = [6, 3]"] ;
1090 -> 1092 ;
1093 [label="entropy = 0.0\nsamples = 4\nvalue = [4, 0]"] ;
1092 -> 1093 ;
1094 [label="X[0] <= 68.655\nentropy = 0.971\nsamples = 5\nvalue = [2, 3]"] ;
1092 -> 1094 ;
1095 [label="X[4] <= 277.5\nentropy = 0.918\nsamples = 3\nvalue = [2, 1]"] ;
1094 -> 1095 ;
1096 [label="entropy = 0.0\nsamples = 1\nvalue = [0, 1]"] ;
1095 -> 1096 ;
1097 [label="entropy = 0.0\nsamples = 2\nvalue = [2, 0]"] ;
1095 -> 1097 ;
1098 [label="entropy = 0.0\nsamples = 2\nvalue = [0, 2]"] ;
1094 -> 1098 ;
1099 [label="entropy = 0.0\nsamples = 2\nvalue = [0, 2]"] ;
1083 -> 1099 ;
1100 [label="entropy = 0.0\nsamples = 4\nvalue = [4, 0]"] ;
1082 -> 1100 ;
1101 [label="X[6] <= 0.5\nentropy = 0.513\nsamples = 35\nvalue = [31, 4]"] ;
501 -> 1101 ;
1102 [label="entropy = 0.0\nsamples = 15\nvalue = [15, 0]"] ;
1101 -> 1102 ;
1103 [label="X[0] <= 31.955\nentropy = 0.722\nsamples = 20\nvalue = [16, 4]"] ;
1101 -> 1103 ;
1104 [label="entropy = 0.0\nsamples = 1\nvalue = [0, 1]"] ;
1103 -> 1104 ;
1105 [label="X[0] <= 60.07\nentropy = 0.629\nsamples = 19\nvalue = [16, 3]"] ;
1103 -> 1105 ;
1106 [label="X[4] <= 197.5\nentropy = 0.503\nsamples = 18\nvalue = [16, 2]"] ;
1105 -> 1106 ;
1107 [label="entropy = 0.0\nsamples = 7\nvalue = [7, 0]"] ;
1106 -> 1107 ;
1108 [label="X[2] <= 6.665\nentropy = 0.684\nsamples = 11\nvalue = [9, 2]"] ;
1106 -> 1108 ;
1109 [label="X[4] <= 201.5\nentropy = 0.469\nsamples = 10\nvalue = [9, 1]"] ;
1108 -> 1109 ;
1110 [label="entropy = 0.0\nsamples = 1\nvalue = [0, 1]"] ;
1109 -> 1110 ;
1111 [label="entropy = 0.0\nsamples = 9\nvalue = [9, 0]"] ;
1109 -> 1111 ;
1112 [label="entropy = 0.0\nsamples = 1\nvalue = [0, 1]"] ;
1108 -> 1112 ;
1113 [label="entropy = 0.0\nsamples = 1\nvalue = [0, 1]"] ;
1105 -> 1113 ;
1114 [label="X[5] <= 0.5\nentropy = 0.297\nsamples = 19\nvalue = [18, 1]"] ;
500 -> 1114 ;
1115 [label="entropy = 0.0\nsamples = 1\nvalue = [0, 1]"] ;
1114 -> 1115 ;
1116 [label="entropy = 0.0\nsamples = 18\nvalue = [18, 0]"] ;
1114 -> 1116 ;
1117 [label="X[1] <= 2.335\nentropy = 0.592\nsamples = 7\nvalue = [1, 6]"] ;
499 -> 1117 ;
1118 [label="entropy = 0.0\nsamples = 1\nvalue = [1, 0]"] ;
1117 -> 1118 ;
1119 [label="entropy = 0.0\nsamples = 6\nvalue = [0, 6]"] ;
1117 -> 1119 ;
1120 [label="X[4] <= 195.0\nentropy = 1.0\nsamples = 94\nvalue = [47, 47]"] ;
348 -> 1120 ;
1121 [label="X[2] <= 14.0\nentropy = 0.944\nsamples = 36\nvalue = [13, 23]"] ;
1120 -> 1121 ;
1122 [label="X[1] <= 70.5\nentropy = 0.918\nsamples = 9\nvalue = [6, 3]"] ;
1121 -> 1122 ;
1123 [label="entropy = 0.0\nsamples = 2\nvalue = [0, 2]"] ;
1122 -> 1123 ;
1124 [label="X[4] <= 93.0\nentropy = 0.592\nsamples = 7\nvalue = [6, 1]"] ;
1122 -> 1124 ;
1125 [label="X[4] <= 85.5\nentropy = 1.0\nsamples = 2\nvalue = [1, 1]"] ;
1124 -> 1125 ;
1126 [label="entropy = 0.0\nsamples = 1\nvalue = [1, 0]"] ;
1125 -> 1126 ;
1127 [label="entropy = 0.0\nsamples = 1\nvalue = [0, 1]"] ;
1125 -> 1127 ;
1128 [label="entropy = 0.0\nsamples = 5\nvalue = [5, 0]"] ;
1124 -> 1128 ;
1129 [label="X[1] <= 71.665\nentropy = 0.826\nsamples = 27\nvalue = [7, 20]"] ;
1121 -> 1129 ;
1130 [label="entropy = 0.0\nsamples = 2\nvalue = [2, 0]"] ;
1129 -> 1130 ;
1131 [label="X[4] <= 178.0\nentropy = 0.722\nsamples = 25\nvalue = [5, 20]"] ;
1129 -> 1131 ;
1132 [label="X[2] <= 27.165\nentropy = 0.874\nsamples = 17\nvalue = [5, 12]"] ;
1131 -> 1132 ;
1133 [label="entropy = 0.0\nsamples = 5\nvalue = [0, 5]"] ;
1132 -> 1133 ;
1134 [label="X[4] <= 42.0\nentropy = 0.98\nsamples = 12\nvalue = [5, 7]"] ;
1132 -> 1134 ;
1135 [label="entropy = 0.0\nsamples = 2\nvalue = [2, 0]"] ;
1134 -> 1135 ;
1136 [label="X[0] <= 55.015\nentropy = 0.881\nsamples = 10\nvalue = [3, 7]"] ;
1134 -> 1136 ;
1137 [label="X[1] <= 133.835\nentropy = 0.971\nsamples = 5\nvalue = [3, 2]"] ;
1136 -> 1137 ;
1138 [label="entropy = 0.0\nsamples = 3\nvalue = [3, 0]"] ;
1137 -> 1138 ;
1139 [label="entropy = 0.0\nsamples = 2\nvalue = [0, 2]"] ;
1137 -> 1139 ;
1140 [label="entropy = 0.0\nsamples = 5\nvalue = [0, 5]"] ;
1136 -> 1140 ;
1141 [label="entropy = 0.0\nsamples = 8\nvalue = [0, 8]"] ;
1131 -> 1141 ;
1142 [label="X[2] <= 12.665\nentropy = 0.978\nsamples = 58\nvalue = [34, 24]"] ;
1120 -> 1142 ;
1143 [label="X[6] <= 0.5\nentropy = 0.592\nsamples = 7\nvalue = [1, 6]"] ;
1142 -> 1143 ;
1144 [label="entropy = 0.0\nsamples = 6\nvalue = [0, 6]"] ;
1143 -> 1144 ;
1145 [label="entropy = 0.0\nsamples = 1\nvalue = [1, 0]"] ;
1143 -> 1145 ;
1146 [label="X[0] <= 67.595\nentropy = 0.937\nsamples = 51\nvalue = [33, 18]"] ;
1142 -> 1146 ;
1147 [label="X[4] <= 282.0\nentropy = 0.966\nsamples = 46\nvalue = [28, 18]"] ;
1146 -> 1147 ;
1148 [label="X[2] <= 18.335\nentropy = 0.998\nsamples = 36\nvalue = [19, 17]"] ;
1147 -> 1148 ;
1149 [label="entropy = 0.0\nsamples = 5\nvalue = [5, 0]"] ;
1148 -> 1149 ;
1150 [label="X[0] <= 60.135\nentropy = 0.993\nsamples = 31\nvalue = [14, 17]"] ;
1148 -> 1150 ;
1151 [label="X[2] <= 25.335\nentropy = 0.996\nsamples = 26\nvalue = [14, 12]"] ;
1150 -> 1151 ;
1152 [label="X[2] <= 24.335\nentropy = 0.845\nsamples = 11\nvalue = [3, 8]"] ;
1151 -> 1152 ;
1153 [label="X[1] <= 115.165\nentropy = 0.985\nsamples = 7\nvalue = [3, 4]"] ;
1152 -> 1153 ;
1154 [label="X[1] <= 82.5\nentropy = 0.722\nsamples = 5\nvalue = [1, 4]"] ;
1153 -> 1154 ;
1155 [label="X[4] <= 250.5\nentropy = 1.0\nsamples = 2\nvalue = [1, 1]"] ;
1154 -> 1155 ;
1156 [label="entropy = 0.0\nsamples = 1\nvalue = [1, 0]"] ;
1155 -> 1156 ;
1157 [label="entropy = 0.0\nsamples = 1\nvalue = [0, 1]"] ;
1155 -> 1157 ;
1158 [label="entropy = 0.0\nsamples = 3\nvalue = [0, 3]"] ;
1154 -> 1158 ;
1159 [label="entropy = 0.0\nsamples = 2\nvalue = [2, 0]"] ;
1153 -> 1159 ;
1160 [label="entropy = 0.0\nsamples = 4\nvalue = [0, 4]"] ;
1152 -> 1160 ;
1161 [label="X[3] <= 8.5\nentropy = 0.837\nsamples = 15\nvalue = [11, 4]"] ;
1151 -> 1161 ;
1162 [label="entropy = 0.0\nsamples = 9\nvalue = [9, 0]"] ;
1161 -> 1162 ;
1163 [label="X[1] <= 82.835\nentropy = 0.918\nsamples = 6\nvalue = [2, 4]"] ;
1161 -> 1163 ;
1164 [label="entropy = 0.0\nsamples = 3\nvalue = [0, 3]"] ;
1163 -> 1164 ;
1165 [label="X[2] <= 64.835\nentropy = 0.918\nsamples = 3\nvalue = [2, 1]"] ;
1163 -> 1165 ;
1166 [label="entropy = 0.0\nsamples = 2\nvalue = [2, 0]"] ;
1165 -> 1166 ;
1167 [label="entropy = 0.0\nsamples = 1\nvalue = [0, 1]"] ;
1165 -> 1167 ;
1168 [label="entropy = 0.0\nsamples = 5\nvalue = [0, 5]"] ;
1150 -> 1168 ;
1169 [label="X[2] <= 13.835\nentropy = 0.469\nsamples = 10\nvalue = [9, 1]"] ;
1147 -> 1169 ;
1170 [label="entropy = 0.0\nsamples = 1\nvalue = [0, 1]"] ;
1169 -> 1170 ;
1171 [label="entropy = 0.0\nsamples = 9\nvalue = [9, 0]"] ;
1169 -> 1171 ;
1172 [label="entropy = 0.0\nsamples = 5\nvalue = [5, 0]"] ;
1146 -> 1172 ;
1173 [label="X[4] <= 197.5\nentropy = 0.807\nsamples = 2004\nvalue = [1508, 496]"] ;
347 -> 1173 ;
1174 [label="X[10] <= 0.5\nentropy = 0.879\nsamples = 527\nvalue = [370, 157]"] ;
1173 -> 1174 ;
1175 [label="X[0] <= 54.43\nentropy = 0.866\nsamples = 514\nvalue = [366, 148]"] ;
1174 -> 1175 ;
1176 [label="X[4] <= 190.5\nentropy = 0.821\nsamples = 363\nvalue = [270, 93]"] ;
1175 -> 1176 ;
1177 [label="X[0] <= 51.715\nentropy = 0.779\nsamples = 282\nvalue = [217, 65]"] ;
1176 -> 1177 ;
1178 [label="X[0] <= 35.275\nentropy = 0.804\nsamples = 265\nvalue = [200, 65]"] ;
1177 -> 1178 ;
1179 [label="X[0] <= 32.225\nentropy = 0.592\nsamples = 56\nvalue = [48, 8]"] ;
1178 -> 1179 ;
1180 [label="X[1] <= 11.0\nentropy = 0.877\nsamples = 27\nvalue = [19, 8]"] ;
1179 -> 1180 ;
1181 [label="X[0] <= 31.445\nentropy = 0.629\nsamples = 19\nvalue = [16, 3]"] ;
1180 -> 1181 ;
1182 [label="X[6] <= 0.5\nentropy = 0.503\nsamples = 18\nvalue = [16, 2]"] ;
1181 -> 1182 ;
1183 [label="X[4] <= 43.0\nentropy = 0.764\nsamples = 9\nvalue = [7, 2]"] ;
1182 -> 1183 ;
1184 [label="entropy = 0.0\nsamples = 1\nvalue = [0, 1]"] ;
1183 -> 1184 ;
1185 [label="X[2] <= 0.165\nentropy = 0.544\nsamples = 8\nvalue = [7, 1]"] ;
1183 -> 1185 ;
1186 [label="X[0] <= 30.125\nentropy = 1.0\nsamples = 2\nvalue = [1, 1]"] ;
1185 -> 1186 ;
1187 [label="entropy = 0.0\nsamples = 1\nvalue = [1, 0]"] ;
1186 -> 1187 ;
1188 [label="entropy = 0.0\nsamples = 1\nvalue = [0, 1]"] ;
1186 -> 1188 ;
1189 [label="entropy = 0.0\nsamples = 6\nvalue = [6, 0]"] ;
1185 -> 1189 ;
1190 [label="entropy = 0.0\nsamples = 9\nvalue = [9, 0]"] ;
1182 -> 1190 ;
1191 [label="entropy = 0.0\nsamples = 1\nvalue = [0, 1]"] ;
1181 -> 1191 ;
1192 [label="X[4] <= 172.5\nentropy = 0.954\nsamples = 8\nvalue = [3, 5]"] ;
1180 -> 1192 ;
1193 [label="X[2] <= 1.835\nentropy = 0.811\nsamples = 4\nvalue = [3, 1]"] ;
1192 -> 1193 ;
1194 [label="entropy = 0.0\nsamples = 1\nvalue = [0, 1]"] ;
1193 -> 1194 ;
1195 [label="entropy = 0.0\nsamples = 3\nvalue = [3, 0]"] ;
1193 -> 1195 ;
1196 [label="entropy = 0.0\nsamples = 4\nvalue = [0, 4]"] ;
1192 -> 1196 ;
1197 [label="entropy = 0.0\nsamples = 29\nvalue = [29, 0]"] ;
1179 -> 1197 ;
1198 [label="X[3] <= 9.5\nentropy = 0.845\nsamples = 209\nvalue = [152, 57]"] ;
1178 -> 1198 ;
1199 [label="X[4] <= 12.5\nentropy = 0.789\nsamples = 169\nvalue = [129, 40]"] ;
1198 -> 1199 ;
1200 [label="entropy = 0.0\nsamples = 8\nvalue = [8, 0]"] ;
1199 -> 1200 ;
1201 [label="X[2] <= 4.835\nentropy = 0.809\nsamples = 161\nvalue = [121, 40]"] ;
1199 -> 1201 ;
1202 [label="X[2] <= 4.5\nentropy = 0.871\nsamples = 113\nvalue = [80, 33]"] ;
1201 -> 1202 ;
1203 [label="X[0] <= 51.63\nentropy = 0.845\nsamples = 110\nvalue = [80, 30]"] ;
1202 -> 1203 ;
1204 [label="X[0] <= 50.29\nentropy = 0.826\nsamples = 108\nvalue = [80, 28]"] ;
1203 -> 1204 ;
1205 [label="X[0] <= 43.88\nentropy = 0.859\nsamples = 99\nvalue = [71, 28]"] ;
1204 -> 1205 ;
1206 [label="X[1] <= 14.665\nentropy = 0.722\nsamples = 65\nvalue = [52, 13]"] ;
1205 -> 1206 ;
1207 [label="X[1] <= 5.165\nentropy = 0.516\nsamples = 52\nvalue = [46, 6]"] ;
1206 -> 1207 ;
1208 [label="X[0] <= 38.19\nentropy = 0.722\nsamples = 30\nvalue = [24, 6]"] ;
1207 -> 1208 ;
1209 [label="X[0] <= 35.67\nentropy = 0.991\nsamples = 9\nvalue = [5, 4]"] ;
1208 -> 1209 ;
1210 [label="entropy = 0.0\nsamples = 4\nvalue = [4, 0]"] ;
1209 -> 1210 ;
1211 [label="X[8] <= 0.5\nentropy = 0.722\nsamples = 5\nvalue = [1, 4]"] ;
1209 -> 1211 ;
1212 [label="X[1] <= 2.17\nentropy = 1.0\nsamples = 2\nvalue = [1, 1]"] ;
1211 -> 1212 ;
1213 [label="entropy = 0.0\nsamples = 1\nvalue = [1, 0]"] ;
1212 -> 1213 ;
1214 [label="entropy = 0.0\nsamples = 1\nvalue = [0, 1]"] ;
1212 -> 1214 ;
1215 [label="entropy = 0.0\nsamples = 3\nvalue = [0, 3]"] ;
1211 -> 1215 ;
1216 [label="X[1] <= 4.5\nentropy = 0.454\nsamples = 21\nvalue = [19, 2]"] ;
1208 -> 1216 ;
1217 [label="X[2] <= 0.165\nentropy = 0.286\nsamples = 20\nvalue = [19, 1]"] ;
1216 -> 1217 ;
1218 [label="X[1] <= 0.165\nentropy = 0.544\nsamples = 8\nvalue = [7, 1]"] ;
1217 -> 1218 ;
1219 [label="entropy = 0.0\nsamples = 4\nvalue = [4, 0]"] ;
1218 -> 1219 ;
1220 [label="X[4] <= 150.0\nentropy = 0.811\nsamples = 4\nvalue = [3, 1]"] ;
1218 -> 1220 ;
1221 [label="entropy = 0.0\nsamples = 1\nvalue = [0, 1]"] ;
1220 -> 1221 ;
1222 [label="entropy = 0.0\nsamples = 3\nvalue = [3, 0]"] ;
1220 -> 1222 ;
1223 [label="entropy = 0.0\nsamples = 12\nvalue = [12, 0]"] ;
1217 -> 1223 ;
1224 [label="entropy = 0.0\nsamples = 1\nvalue = [0, 1]"] ;
1216 -> 1224 ;
